digraph Tree {
node [shape=box, style="filled", color="black"] ;
0 [label="Height <= 0.122\nentropy = 1.241\nsamples = 4177\nvalue = [2509, 245, 1407, 16]\nclass = baby", fillcolor="#f5cdb0"] ;
1 [label="Diameter <= 0.222\nentropy = 0.86\nsamples = 1325\nvalue = [334, 7, 984, 0]\nclass = adult", fillcolor="#7dbfee"] ;
0 -> 1 [labeldistance=2.5, labelangle=45, headlabel="True"] ;
2 [label="Shellweight <= 0.041\nentropy = 0.042\nsamples = 219\nvalue = [1, 0, 218, 0]\nclass = adult", fillcolor="#3a9de5"] ;
1 -> 2 ;
3 [label="entropy = 0.0\nsamples = 207\nvalue = [0, 0, 207, 0]\nclass = adult", fillcolor="#399de5"] ;
2 -> 3 ;
4 [label="Shuckedweight <= 0.054\nentropy = 0.414\nsamples = 12\nvalue = [1, 0, 11, 0]\nclass = adult", fillcolor="#4ba6e7"] ;
2 -> 4 ;
5 [label="Diameter <= 0.21\nentropy = 0.918\nsamples = 3\nvalue = [1, 0, 2, 0]\nclass = adult", fillcolor="#9ccef2"] ;
4 -> 5 ;
6 [label="entropy = 0.0\nsamples = 1\nvalue = [1, 0, 0, 0]\nclass = baby", fillcolor="#e58139"] ;
5 -> 6 ;
7 [label="entropy = 0.0\nsamples = 2\nvalue = [0, 0, 2, 0]\nclass = adult", fillcolor="#399de5"] ;
5 -> 7 ;
8 [label="entropy = 0.0\nsamples = 9\nvalue = [0, 0, 9, 0]\nclass = adult", fillcolor="#399de5"] ;
4 -> 8 ;
9 [label="Sex_I <= 0.5\nentropy = 0.935\nsamples = 1106\nvalue = [333, 7, 766, 0]\nclass = adult", fillcolor="#90c8f0"] ;
1 -> 9 ;
10 [label="Diameter <= 0.392\nentropy = 1.084\nsamples = 401\nvalue = [224, 6, 171, 0]\nclass = baby", fillcolor="#f9e2d1"] ;
9 -> 10 ;
11 [label="Shuckedweight <= 0.233\nentropy = 1.063\nsamples = 339\nvalue = [175, 3, 161, 0]\nclass = baby", fillcolor="#fdf5ef"] ;
10 -> 11 ;
12 [label="Shellweight <= 0.18\nentropy = 1.057\nsamples = 282\nvalue = [161, 3, 118, 0]\nclass = baby", fillcolor="#f8decb"] ;
11 -> 12 ;
13 [label="Wholeweight <= 0.492\nentropy = 1.045\nsamples = 271\nvalue = [151, 2, 118, 0]\nclass = baby", fillcolor="#f9e4d4"] ;
12 -> 13 ;
14 [label="Visceraweight <= 0.026\nentropy = 1.026\nsamples = 260\nvalue = [142, 1, 117, 0]\nclass = baby", fillcolor="#fae9dc"] ;
13 -> 14 ;
15 [label="entropy = 0.0\nsamples = 4\nvalue = [0, 0, 4, 0]\nclass = adult", fillcolor="#399de5"] ;
14 -> 15 ;
16 [label="Shuckedweight <= 0.194\nentropy = 1.024\nsamples = 256\nvalue = [142, 1, 113, 0]\nclass = baby", fillcolor="#fae5d7"] ;
14 -> 16 ;
17 [label="Shellweight <= 0.104\nentropy = 1.018\nsamples = 223\nvalue = [129, 1, 93, 0]\nclass = baby", fillcolor="#f8dcc8"] ;
16 -> 17 ;
18 [label="Diameter <= 0.278\nentropy = 0.997\nsamples = 135\nvalue = [72, 0, 63, 0]\nclass = baby", fillcolor="#fcefe6"] ;
17 -> 18 ;
19 [label="Shuckedweight <= 0.082\nentropy = 0.99\nsamples = 68\nvalue = [30, 0, 38, 0]\nclass = adult", fillcolor="#d5eafa"] ;
18 -> 19 ;
20 [label="Diameter <= 0.267\nentropy = 0.988\nsamples = 46\nvalue = [26, 0, 20, 0]\nclass = baby", fillcolor="#f9e2d1"] ;
19 -> 20 ;
21 [label="Shellweight <= 0.064\nentropy = 0.998\nsamples = 42\nvalue = [22, 0, 20, 0]\nclass = baby", fillcolor="#fdf4ed"] ;
20 -> 21 ;
22 [label="Shuckedweight <= 0.073\nentropy = 0.989\nsamples = 32\nvalue = [14, 0, 18, 0]\nclass = adult", fillcolor="#d3e9f9"] ;
21 -> 22 ;
23 [label="Height <= 0.067\nentropy = 0.988\nsamples = 23\nvalue = [13, 0, 10, 0]\nclass = baby", fillcolor="#f9e2d1"] ;
22 -> 23 ;
24 [label="entropy = 0.0\nsamples = 2\nvalue = [2, 0, 0, 0]\nclass = baby", fillcolor="#e58139"] ;
23 -> 24 ;
25 [label="Visceraweight <= 0.035\nentropy = 0.998\nsamples = 21\nvalue = [11, 0, 10, 0]\nclass = baby", fillcolor="#fdf4ed"] ;
23 -> 25 ;
26 [label="Diameter <= 0.227\nentropy = 0.881\nsamples = 10\nvalue = [3, 0, 7, 0]\nclass = adult", fillcolor="#8ec7f0"] ;
25 -> 26 ;
27 [label="Shuckedweight <= 0.056\nentropy = 0.918\nsamples = 3\nvalue = [2, 0, 1, 0]\nclass = baby", fillcolor="#f2c09c"] ;
26 -> 27 ;
28 [label="entropy = 0.0\nsamples = 2\nvalue = [2, 0, 0, 0]\nclass = baby", fillcolor="#e58139"] ;
27 -> 28 ;
29 [label="entropy = 0.0\nsamples = 1\nvalue = [0, 0, 1, 0]\nclass = adult", fillcolor="#399de5"] ;
27 -> 29 ;
30 [label="Shellweight <= 0.052\nentropy = 0.592\nsamples = 7\nvalue = [1, 0, 6, 0]\nclass = adult", fillcolor="#5aade9"] ;
26 -> 30 ;
31 [label="entropy = 0.0\nsamples = 5\nvalue = [0, 0, 5, 0]\nclass = adult", fillcolor="#399de5"] ;
30 -> 31 ;
32 [label="Diameter <= 0.245\nentropy = 1.0\nsamples = 2\nvalue = [1, 0, 1, 0]\nclass = baby", fillcolor="#ffffff"] ;
30 -> 32 ;
33 [label="entropy = 0.0\nsamples = 1\nvalue = [1, 0, 0, 0]\nclass = baby", fillcolor="#e58139"] ;
32 -> 33 ;
34 [label="entropy = 0.0\nsamples = 1\nvalue = [0, 0, 1, 0]\nclass = adult", fillcolor="#399de5"] ;
32 -> 34 ;
35 [label="Height <= 0.082\nentropy = 0.845\nsamples = 11\nvalue = [8, 0, 3, 0]\nclass = baby", fillcolor="#efb083"] ;
25 -> 35 ;
36 [label="entropy = 0.0\nsamples = 3\nvalue = [3, 0, 0, 0]\nclass = baby", fillcolor="#e58139"] ;
35 -> 36 ;
37 [label="Sex_M <= 0.5\nentropy = 0.954\nsamples = 8\nvalue = [5, 0, 3, 0]\nclass = baby", fillcolor="#f5cdb0"] ;
35 -> 37 ;
38 [label="entropy = 0.0\nsamples = 1\nvalue = [1, 0, 0, 0]\nclass = baby", fillcolor="#e58139"] ;
37 -> 38 ;
39 [label="Length <= 0.352\nentropy = 0.985\nsamples = 7\nvalue = [4, 0, 3, 0]\nclass = baby", fillcolor="#f8e0ce"] ;
37 -> 39 ;
40 [label="Diameter <= 0.242\nentropy = 0.918\nsamples = 6\nvalue = [4, 0, 2, 0]\nclass = baby", fillcolor="#f2c09c"] ;
39 -> 40 ;
41 [label="Diameter <= 0.232\nentropy = 0.918\nsamples = 3\nvalue = [1, 0, 2, 0]\nclass = adult", fillcolor="#9ccef2"] ;
40 -> 41 ;
42 [label="entropy = 0.0\nsamples = 1\nvalue = [1, 0, 0, 0]\nclass = baby", fillcolor="#e58139"] ;
41 -> 42 ;
43 [label="entropy = 0.0\nsamples = 2\nvalue = [0, 0, 2, 0]\nclass = adult", fillcolor="#399de5"] ;
41 -> 43 ;
44 [label="entropy = 0.0\nsamples = 3\nvalue = [3, 0, 0, 0]\nclass = baby", fillcolor="#e58139"] ;
40 -> 44 ;
45 [label="entropy = 0.0\nsamples = 1\nvalue = [0, 0, 1, 0]\nclass = adult", fillcolor="#399de5"] ;
39 -> 45 ;
46 [label="Shellweight <= 0.061\nentropy = 0.503\nsamples = 9\nvalue = [1, 0, 8, 0]\nclass = adult", fillcolor="#52a9e8"] ;
22 -> 46 ;
47 [label="entropy = 0.0\nsamples = 8\nvalue = [0, 0, 8, 0]\nclass = adult", fillcolor="#399de5"] ;
46 -> 47 ;
48 [label="entropy = 0.0\nsamples = 1\nvalue = [1, 0, 0, 0]\nclass = baby", fillcolor="#e58139"] ;
46 -> 48 ;
49 [label="Wholeweight <= 0.196\nentropy = 0.722\nsamples = 10\nvalue = [8, 0, 2, 0]\nclass = baby", fillcolor="#eca06a"] ;
21 -> 49 ;
50 [label="entropy = 0.0\nsamples = 3\nvalue = [3, 0, 0, 0]\nclass = baby", fillcolor="#e58139"] ;
49 -> 50 ;
51 [label="Length <= 0.347\nentropy = 0.863\nsamples = 7\nvalue = [5, 0, 2, 0]\nclass = baby", fillcolor="#efb388"] ;
49 -> 51 ;
52 [label="entropy = 0.0\nsamples = 5\nvalue = [5, 0, 0, 0]\nclass = baby", fillcolor="#e58139"] ;
51 -> 52 ;
53 [label="entropy = 0.0\nsamples = 2\nvalue = [0, 0, 2, 0]\nclass = adult", fillcolor="#399de5"] ;
51 -> 53 ;
54 [label="entropy = 0.0\nsamples = 4\nvalue = [4, 0, 0, 0]\nclass = baby", fillcolor="#e58139"] ;
20 -> 54 ;
55 [label="Length <= 0.365\nentropy = 0.684\nsamples = 22\nvalue = [4, 0, 18, 0]\nclass = adult", fillcolor="#65b3eb"] ;
19 -> 55 ;
56 [label="Diameter <= 0.257\nentropy = 0.863\nsamples = 14\nvalue = [4, 0, 10, 0]\nclass = adult", fillcolor="#88c4ef"] ;
55 -> 56 ;
57 [label="entropy = 0.0\nsamples = 3\nvalue = [3, 0, 0, 0]\nclass = baby", fillcolor="#e58139"] ;
56 -> 57 ;
58 [label="Wholeweight <= 0.217\nentropy = 0.439\nsamples = 11\nvalue = [1, 0, 10, 0]\nclass = adult", fillcolor="#4da7e8"] ;
56 -> 58 ;
59 [label="Wholeweight <= 0.204\nentropy = 0.918\nsamples = 3\nvalue = [1, 0, 2, 0]\nclass = adult", fillcolor="#9ccef2"] ;
58 -> 59 ;
60 [label="entropy = 0.0\nsamples = 2\nvalue = [0, 0, 2, 0]\nclass = adult", fillcolor="#399de5"] ;
59 -> 60 ;
61 [label="entropy = 0.0\nsamples = 1\nvalue = [1, 0, 0, 0]\nclass = baby", fillcolor="#e58139"] ;
59 -> 61 ;
62 [label="entropy = 0.0\nsamples = 8\nvalue = [0, 0, 8, 0]\nclass = adult", fillcolor="#399de5"] ;
58 -> 62 ;
63 [label="entropy = 0.0\nsamples = 8\nvalue = [0, 0, 8, 0]\nclass = adult", fillcolor="#399de5"] ;
55 -> 63 ;
64 [label="Diameter <= 0.292\nentropy = 0.953\nsamples = 67\nvalue = [42, 0, 25, 0]\nclass = baby", fillcolor="#f4ccaf"] ;
18 -> 64 ;
65 [label="Shellweight <= 0.08\nentropy = 0.738\nsamples = 24\nvalue = [19, 0, 5, 0]\nclass = baby", fillcolor="#eca26d"] ;
64 -> 65 ;
66 [label="Shuckedweight <= 0.084\nentropy = 0.94\nsamples = 14\nvalue = [9, 0, 5, 0]\nclass = baby", fillcolor="#f3c7a7"] ;
65 -> 66 ;
67 [label="entropy = 0.0\nsamples = 2\nvalue = [0, 0, 2, 0]\nclass = adult", fillcolor="#399de5"] ;
66 -> 67 ;
68 [label="Wholeweight <= 0.251\nentropy = 0.811\nsamples = 12\nvalue = [9, 0, 3, 0]\nclass = baby", fillcolor="#eeab7b"] ;
66 -> 68 ;
69 [label="entropy = 0.0\nsamples = 7\nvalue = [7, 0, 0, 0]\nclass = baby", fillcolor="#e58139"] ;
68 -> 69 ;
70 [label="Shellweight <= 0.078\nentropy = 0.971\nsamples = 5\nvalue = [2, 0, 3, 0]\nclass = adult", fillcolor="#bddef6"] ;
68 -> 70 ;
71 [label="Diameter <= 0.282\nentropy = 0.918\nsamples = 3\nvalue = [2, 0, 1, 0]\nclass = baby", fillcolor="#f2c09c"] ;
70 -> 71 ;
72 [label="entropy = 0.0\nsamples = 1\nvalue = [0, 0, 1, 0]\nclass = adult", fillcolor="#399de5"] ;
71 -> 72 ;
73 [label="entropy = 0.0\nsamples = 2\nvalue = [2, 0, 0, 0]\nclass = baby", fillcolor="#e58139"] ;
71 -> 73 ;
74 [label="entropy = 0.0\nsamples = 2\nvalue = [0, 0, 2, 0]\nclass = adult", fillcolor="#399de5"] ;
70 -> 74 ;
75 [label="entropy = 0.0\nsamples = 10\nvalue = [10, 0, 0, 0]\nclass = baby", fillcolor="#e58139"] ;
65 -> 75 ;
76 [label="Visceraweight <= 0.058\nentropy = 0.996\nsamples = 43\nvalue = [23, 0, 20, 0]\nclass = baby", fillcolor="#fcefe5"] ;
64 -> 76 ;
77 [label="Shuckedweight <= 0.082\nentropy = 0.896\nsamples = 16\nvalue = [5, 0, 11, 0]\nclass = adult", fillcolor="#93caf1"] ;
76 -> 77 ;
78 [label="entropy = 0.0\nsamples = 2\nvalue = [2, 0, 0, 0]\nclass = baby", fillcolor="#e58139"] ;
77 -> 78 ;
79 [label="Shellweight <= 0.098\nentropy = 0.75\nsamples = 14\nvalue = [3, 0, 11, 0]\nclass = adult", fillcolor="#6fb8ec"] ;
77 -> 79 ;
80 [label="Visceraweight <= 0.049\nentropy = 0.469\nsamples = 10\nvalue = [1, 0, 9, 0]\nclass = adult", fillcolor="#4fa8e8"] ;
79 -> 80 ;
81 [label="Sex_M <= 0.5\nentropy = 1.0\nsamples = 2\nvalue = [1, 0, 1, 0]\nclass = baby", fillcolor="#ffffff"] ;
80 -> 81 ;
82 [label="entropy = 0.0\nsamples = 1\nvalue = [0, 0, 1, 0]\nclass = adult", fillcolor="#399de5"] ;
81 -> 82 ;
83 [label="entropy = 0.0\nsamples = 1\nvalue = [1, 0, 0, 0]\nclass = baby", fillcolor="#e58139"] ;
81 -> 83 ;
84 [label="entropy = 0.0\nsamples = 8\nvalue = [0, 0, 8, 0]\nclass = adult", fillcolor="#399de5"] ;
80 -> 84 ;
85 [label="Diameter <= 0.3\nentropy = 1.0\nsamples = 4\nvalue = [2, 0, 2, 0]\nclass = baby", fillcolor="#ffffff"] ;
79 -> 85 ;
86 [label="entropy = 0.0\nsamples = 2\nvalue = [0, 0, 2, 0]\nclass = adult", fillcolor="#399de5"] ;
85 -> 86 ;
87 [label="entropy = 0.0\nsamples = 2\nvalue = [2, 0, 0, 0]\nclass = baby", fillcolor="#e58139"] ;
85 -> 87 ;
88 [label="Wholeweight <= 0.314\nentropy = 0.918\nsamples = 27\nvalue = [18, 0, 9, 0]\nclass = baby", fillcolor="#f2c09c"] ;
76 -> 88 ;
89 [label="Diameter <= 0.317\nentropy = 0.619\nsamples = 13\nvalue = [11, 0, 2, 0]\nclass = baby", fillcolor="#ea985d"] ;
88 -> 89 ;
90 [label="Wholeweight <= 0.263\nentropy = 0.414\nsamples = 12\nvalue = [11, 0, 1, 0]\nclass = baby", fillcolor="#e78c4b"] ;
89 -> 90 ;
91 [label="Diameter <= 0.303\nentropy = 1.0\nsamples = 2\nvalue = [1, 0, 1, 0]\nclass = baby", fillcolor="#ffffff"] ;
90 -> 91 ;
92 [label="entropy = 0.0\nsamples = 1\nvalue = [1, 0, 0, 0]\nclass = baby", fillcolor="#e58139"] ;
91 -> 92 ;
93 [label="entropy = 0.0\nsamples = 1\nvalue = [0, 0, 1, 0]\nclass = adult", fillcolor="#399de5"] ;
91 -> 93 ;
94 [label="entropy = 0.0\nsamples = 10\nvalue = [10, 0, 0, 0]\nclass = baby", fillcolor="#e58139"] ;
90 -> 94 ;
95 [label="entropy = 0.0\nsamples = 1\nvalue = [0, 0, 1, 0]\nclass = adult", fillcolor="#399de5"] ;
89 -> 95 ;
96 [label="Sex_M <= 0.5\nentropy = 1.0\nsamples = 14\nvalue = [7, 0, 7, 0]\nclass = baby", fillcolor="#ffffff"] ;
88 -> 96 ;
97 [label="Shuckedweight <= 0.142\nentropy = 0.811\nsamples = 8\nvalue = [6, 0, 2, 0]\nclass = baby", fillcolor="#eeab7b"] ;
96 -> 97 ;
98 [label="Shellweight <= 0.098\nentropy = 1.0\nsamples = 4\nvalue = [2, 0, 2, 0]\nclass = baby", fillcolor="#ffffff"] ;
97 -> 98 ;
99 [label="entropy = 0.0\nsamples = 1\nvalue = [1, 0, 0, 0]\nclass = baby", fillcolor="#e58139"] ;
98 -> 99 ;
100 [label="Wholeweight <= 0.357\nentropy = 0.918\nsamples = 3\nvalue = [1, 0, 2, 0]\nclass = adult", fillcolor="#9ccef2"] ;
98 -> 100 ;
101 [label="entropy = 0.0\nsamples = 2\nvalue = [0, 0, 2, 0]\nclass = adult", fillcolor="#399de5"] ;
100 -> 101 ;
102 [label="entropy = 0.0\nsamples = 1\nvalue = [1, 0, 0, 0]\nclass = baby", fillcolor="#e58139"] ;
100 -> 102 ;
103 [label="entropy = 0.0\nsamples = 4\nvalue = [4, 0, 0, 0]\nclass = baby", fillcolor="#e58139"] ;
97 -> 103 ;
104 [label="Length <= 0.42\nentropy = 0.65\nsamples = 6\nvalue = [1, 0, 5, 0]\nclass = adult", fillcolor="#61b1ea"] ;
96 -> 104 ;
105 [label="entropy = 0.0\nsamples = 4\nvalue = [0, 0, 4, 0]\nclass = adult", fillcolor="#399de5"] ;
104 -> 105 ;
106 [label="Shellweight <= 0.099\nentropy = 1.0\nsamples = 2\nvalue = [1, 0, 1, 0]\nclass = baby", fillcolor="#ffffff"] ;
104 -> 106 ;
107 [label="entropy = 0.0\nsamples = 1\nvalue = [1, 0, 0, 0]\nclass = baby", fillcolor="#e58139"] ;
106 -> 107 ;
108 [label="entropy = 0.0\nsamples = 1\nvalue = [0, 0, 1, 0]\nclass = adult", fillcolor="#399de5"] ;
106 -> 108 ;
109 [label="Shuckedweight <= 0.13\nentropy = 1.009\nsamples = 88\nvalue = [57, 1, 30, 0]\nclass = baby", fillcolor="#f3c4a3"] ;
17 -> 109 ;
110 [label="Length <= 0.398\nentropy = 0.469\nsamples = 10\nvalue = [9, 1, 0, 0]\nclass = baby", fillcolor="#e88f4f"] ;
109 -> 110 ;
111 [label="Height <= 0.107\nentropy = 0.918\nsamples = 3\nvalue = [2, 1, 0, 0]\nclass = baby", fillcolor="#f2c09c"] ;
110 -> 111 ;
112 [label="entropy = 0.0\nsamples = 1\nvalue = [0, 1, 0, 0]\nclass = adolescent", fillcolor="#47e539"] ;
111 -> 112 ;
113 [label="entropy = 0.0\nsamples = 2\nvalue = [2, 0, 0, 0]\nclass = baby", fillcolor="#e58139"] ;
111 -> 113 ;
114 [label="entropy = 0.0\nsamples = 7\nvalue = [7, 0, 0, 0]\nclass = baby", fillcolor="#e58139"] ;
110 -> 114 ;
115 [label="Wholeweight <= 0.335\nentropy = 0.961\nsamples = 78\nvalue = [48, 0, 30, 0]\nclass = baby", fillcolor="#f5d0b5"] ;
109 -> 115 ;
116 [label="entropy = 0.0\nsamples = 2\nvalue = [0, 0, 2, 0]\nclass = adult", fillcolor="#399de5"] ;
115 -> 116 ;
117 [label="Wholeweight <= 0.359\nentropy = 0.949\nsamples = 76\nvalue = [48, 0, 28, 0]\nclass = baby", fillcolor="#f4caac"] ;
115 -> 117 ;
118 [label="entropy = 0.0\nsamples = 6\nvalue = [6, 0, 0, 0]\nclass = baby", fillcolor="#e58139"] ;
117 -> 118 ;
119 [label="Shellweight <= 0.107\nentropy = 0.971\nsamples = 70\nvalue = [42, 0, 28, 0]\nclass = baby", fillcolor="#f6d5bd"] ;
117 -> 119 ;
120 [label="entropy = 0.0\nsamples = 1\nvalue = [1, 0, 0, 0]\nclass = baby", fillcolor="#e58139"] ;
119 -> 120 ;
121 [label="Visceraweight <= 0.114\nentropy = 0.974\nsamples = 69\nvalue = [41, 0, 28, 0]\nclass = baby", fillcolor="#f7d7c0"] ;
119 -> 121 ;
122 [label="Height <= 0.085\nentropy = 0.986\nsamples = 65\nvalue = [37, 0, 28, 0]\nclass = baby", fillcolor="#f9e0cf"] ;
121 -> 122 ;
123 [label="entropy = 0.0\nsamples = 2\nvalue = [0, 0, 2, 0]\nclass = adult", fillcolor="#399de5"] ;
122 -> 123 ;
124 [label="Length <= 0.433\nentropy = 0.978\nsamples = 63\nvalue = [37, 0, 26, 0]\nclass = baby", fillcolor="#f7dac4"] ;
122 -> 124 ;
125 [label="Shuckedweight <= 0.161\nentropy = 0.993\nsamples = 20\nvalue = [9, 0, 11, 0]\nclass = adult", fillcolor="#dbedfa"] ;
124 -> 125 ;
126 [label="Length <= 0.428\nentropy = 0.811\nsamples = 8\nvalue = [6, 0, 2, 0]\nclass = baby", fillcolor="#eeab7b"] ;
125 -> 126 ;
127 [label="entropy = 0.0\nsamples = 4\nvalue = [4, 0, 0, 0]\nclass = baby", fillcolor="#e58139"] ;
126 -> 127 ;
128 [label="Wholeweight <= 0.384\nentropy = 1.0\nsamples = 4\nvalue = [2, 0, 2, 0]\nclass = baby", fillcolor="#ffffff"] ;
126 -> 128 ;
129 [label="entropy = 0.0\nsamples = 1\nvalue = [0, 0, 1, 0]\nclass = adult", fillcolor="#399de5"] ;
128 -> 129 ;
130 [label="Visceraweight <= 0.092\nentropy = 0.918\nsamples = 3\nvalue = [2, 0, 1, 0]\nclass = baby", fillcolor="#f2c09c"] ;
128 -> 130 ;
131 [label="entropy = 0.0\nsamples = 1\nvalue = [1, 0, 0, 0]\nclass = baby", fillcolor="#e58139"] ;
130 -> 131 ;
132 [label="Height <= 0.117\nentropy = 1.0\nsamples = 2\nvalue = [1, 0, 1, 0]\nclass = baby", fillcolor="#ffffff"] ;
130 -> 132 ;
133 [label="entropy = 0.0\nsamples = 1\nvalue = [1, 0, 0, 0]\nclass = baby", fillcolor="#e58139"] ;
132 -> 133 ;
134 [label="entropy = 0.0\nsamples = 1\nvalue = [0, 0, 1, 0]\nclass = adult", fillcolor="#399de5"] ;
132 -> 134 ;
135 [label="Height <= 0.113\nentropy = 0.811\nsamples = 12\nvalue = [3, 0, 9, 0]\nclass = adult", fillcolor="#7bbeee"] ;
125 -> 135 ;
136 [label="Length <= 0.407\nentropy = 1.0\nsamples = 6\nvalue = [3, 0, 3, 0]\nclass = baby", fillcolor="#ffffff"] ;
135 -> 136 ;
137 [label="entropy = 0.0\nsamples = 1\nvalue = [0, 0, 1, 0]\nclass = adult", fillcolor="#399de5"] ;
136 -> 137 ;
138 [label="Height <= 0.107\nentropy = 0.971\nsamples = 5\nvalue = [3, 0, 2, 0]\nclass = baby", fillcolor="#f6d5bd"] ;
136 -> 138 ;
139 [label="Wholeweight <= 0.419\nentropy = 1.0\nsamples = 4\nvalue = [2, 0, 2, 0]\nclass = baby", fillcolor="#ffffff"] ;
138 -> 139 ;
140 [label="entropy = 0.0\nsamples = 2\nvalue = [2, 0, 0, 0]\nclass = baby", fillcolor="#e58139"] ;
139 -> 140 ;
141 [label="entropy = 0.0\nsamples = 2\nvalue = [0, 0, 2, 0]\nclass = adult", fillcolor="#399de5"] ;
139 -> 141 ;
142 [label="entropy = 0.0\nsamples = 1\nvalue = [1, 0, 0, 0]\nclass = baby", fillcolor="#e58139"] ;
138 -> 142 ;
143 [label="entropy = 0.0\nsamples = 6\nvalue = [0, 0, 6, 0]\nclass = adult", fillcolor="#399de5"] ;
135 -> 143 ;
144 [label="Visceraweight <= 0.108\nentropy = 0.933\nsamples = 43\nvalue = [28, 0, 15, 0]\nclass = baby", fillcolor="#f3c4a3"] ;
124 -> 144 ;
145 [label="Wholeweight <= 0.366\nentropy = 0.868\nsamples = 38\nvalue = [27, 0, 11, 0]\nclass = baby", fillcolor="#f0b48a"] ;
144 -> 145 ;
146 [label="entropy = 0.0\nsamples = 2\nvalue = [0, 0, 2, 0]\nclass = adult", fillcolor="#399de5"] ;
145 -> 146 ;
147 [label="Length <= 0.458\nentropy = 0.811\nsamples = 36\nvalue = [27, 0, 9, 0]\nclass = baby", fillcolor="#eeab7b"] ;
145 -> 147 ;
148 [label="Length <= 0.447\nentropy = 0.619\nsamples = 26\nvalue = [22, 0, 4, 0]\nclass = baby", fillcolor="#ea985d"] ;
147 -> 148 ;
149 [label="Height <= 0.107\nentropy = 0.787\nsamples = 17\nvalue = [13, 0, 4, 0]\nclass = baby", fillcolor="#eda876"] ;
148 -> 149 ;
150 [label="entropy = 0.0\nsamples = 5\nvalue = [5, 0, 0, 0]\nclass = baby", fillcolor="#e58139"] ;
149 -> 150 ;
151 [label="Wholeweight <= 0.387\nentropy = 0.918\nsamples = 12\nvalue = [8, 0, 4, 0]\nclass = baby", fillcolor="#f2c09c"] ;
149 -> 151 ;
152 [label="entropy = 0.0\nsamples = 3\nvalue = [3, 0, 0, 0]\nclass = baby", fillcolor="#e58139"] ;
151 -> 152 ;
153 [label="Diameter <= 0.33\nentropy = 0.991\nsamples = 9\nvalue = [5, 0, 4, 0]\nclass = baby", fillcolor="#fae6d7"] ;
151 -> 153 ;
154 [label="entropy = 0.0\nsamples = 3\nvalue = [0, 0, 3, 0]\nclass = adult", fillcolor="#399de5"] ;
153 -> 154 ;
155 [label="Wholeweight <= 0.442\nentropy = 0.65\nsamples = 6\nvalue = [5, 0, 1, 0]\nclass = baby", fillcolor="#ea9a61"] ;
153 -> 155 ;
156 [label="entropy = 0.0\nsamples = 3\nvalue = [3, 0, 0, 0]\nclass = baby", fillcolor="#e58139"] ;
155 -> 156 ;
157 [label="Visceraweight <= 0.098\nentropy = 0.918\nsamples = 3\nvalue = [2, 0, 1, 0]\nclass = baby", fillcolor="#f2c09c"] ;
155 -> 157 ;
158 [label="entropy = 0.0\nsamples = 1\nvalue = [0, 0, 1, 0]\nclass = adult", fillcolor="#399de5"] ;
157 -> 158 ;
159 [label="entropy = 0.0\nsamples = 2\nvalue = [2, 0, 0, 0]\nclass = baby", fillcolor="#e58139"] ;
157 -> 159 ;
160 [label="entropy = 0.0\nsamples = 9\nvalue = [9, 0, 0, 0]\nclass = baby", fillcolor="#e58139"] ;
148 -> 160 ;
161 [label="Shuckedweight <= 0.163\nentropy = 1.0\nsamples = 10\nvalue = [5, 0, 5, 0]\nclass = baby", fillcolor="#ffffff"] ;
147 -> 161 ;
162 [label="entropy = 0.0\nsamples = 2\nvalue = [2, 0, 0, 0]\nclass = baby", fillcolor="#e58139"] ;
161 -> 162 ;
163 [label="Height <= 0.102\nentropy = 0.954\nsamples = 8\nvalue = [3, 0, 5, 0]\nclass = adult", fillcolor="#b0d8f5"] ;
161 -> 163 ;
164 [label="entropy = 0.0\nsamples = 2\nvalue = [0, 0, 2, 0]\nclass = adult", fillcolor="#399de5"] ;
163 -> 164 ;
165 [label="Shellweight <= 0.153\nentropy = 1.0\nsamples = 6\nvalue = [3, 0, 3, 0]\nclass = baby", fillcolor="#ffffff"] ;
163 -> 165 ;
166 [label="entropy = 0.0\nsamples = 3\nvalue = [0, 0, 3, 0]\nclass = adult", fillcolor="#399de5"] ;
165 -> 166 ;
167 [label="entropy = 0.0\nsamples = 3\nvalue = [3, 0, 0, 0]\nclass = baby", fillcolor="#e58139"] ;
165 -> 167 ;
168 [label="Shuckedweight <= 0.188\nentropy = 0.722\nsamples = 5\nvalue = [1, 0, 4, 0]\nclass = adult", fillcolor="#6ab6ec"] ;
144 -> 168 ;
169 [label="entropy = 0.0\nsamples = 4\nvalue = [0, 0, 4, 0]\nclass = adult", fillcolor="#399de5"] ;
168 -> 169 ;
170 [label="entropy = 0.0\nsamples = 1\nvalue = [1, 0, 0, 0]\nclass = baby", fillcolor="#e58139"] ;
168 -> 170 ;
171 [label="entropy = 0.0\nsamples = 4\nvalue = [4, 0, 0, 0]\nclass = baby", fillcolor="#e58139"] ;
121 -> 171 ;
172 [label="Diameter <= 0.377\nentropy = 0.967\nsamples = 33\nvalue = [13, 0, 20, 0]\nclass = adult", fillcolor="#baddf6"] ;
16 -> 172 ;
173 [label="Shellweight <= 0.12\nentropy = 0.938\nsamples = 31\nvalue = [11, 0, 20, 0]\nclass = adult", fillcolor="#a6d3f3"] ;
172 -> 173 ;
174 [label="Wholeweight <= 0.393\nentropy = 0.503\nsamples = 9\nvalue = [1, 0, 8, 0]\nclass = adult", fillcolor="#52a9e8"] ;
173 -> 174 ;
175 [label="entropy = 0.0\nsamples = 1\nvalue = [1, 0, 0, 0]\nclass = baby", fillcolor="#e58139"] ;
174 -> 175 ;
176 [label="entropy = 0.0\nsamples = 8\nvalue = [0, 0, 8, 0]\nclass = adult", fillcolor="#399de5"] ;
174 -> 176 ;
177 [label="Shuckedweight <= 0.2\nentropy = 0.994\nsamples = 22\nvalue = [10, 0, 12, 0]\nclass = adult", fillcolor="#deeffb"] ;
173 -> 177 ;
178 [label="Visceraweight <= 0.136\nentropy = 0.65\nsamples = 6\nvalue = [1, 0, 5, 0]\nclass = adult", fillcolor="#61b1ea"] ;
177 -> 178 ;
179 [label="entropy = 0.0\nsamples = 5\nvalue = [0, 0, 5, 0]\nclass = adult", fillcolor="#399de5"] ;
178 -> 179 ;
180 [label="entropy = 0.0\nsamples = 1\nvalue = [1, 0, 0, 0]\nclass = baby", fillcolor="#e58139"] ;
178 -> 180 ;
181 [label="Wholeweight <= 0.478\nentropy = 0.989\nsamples = 16\nvalue = [9, 0, 7, 0]\nclass = baby", fillcolor="#f9e3d3"] ;
177 -> 181 ;
182 [label="Diameter <= 0.352\nentropy = 0.845\nsamples = 11\nvalue = [8, 0, 3, 0]\nclass = baby", fillcolor="#efb083"] ;
181 -> 182 ;
183 [label="Shellweight <= 0.13\nentropy = 1.0\nsamples = 4\nvalue = [2, 0, 2, 0]\nclass = baby", fillcolor="#ffffff"] ;
182 -> 183 ;
184 [label="entropy = 0.0\nsamples = 2\nvalue = [2, 0, 0, 0]\nclass = baby", fillcolor="#e58139"] ;
183 -> 184 ;
185 [label="entropy = 0.0\nsamples = 2\nvalue = [0, 0, 2, 0]\nclass = adult", fillcolor="#399de5"] ;
183 -> 185 ;
186 [label="Shellweight <= 0.157\nentropy = 0.592\nsamples = 7\nvalue = [6, 0, 1, 0]\nclass = baby", fillcolor="#e9965a"] ;
182 -> 186 ;
187 [label="entropy = 0.0\nsamples = 6\nvalue = [6, 0, 0, 0]\nclass = baby", fillcolor="#e58139"] ;
186 -> 187 ;
188 [label="entropy = 0.0\nsamples = 1\nvalue = [0, 0, 1, 0]\nclass = adult", fillcolor="#399de5"] ;
186 -> 188 ;
189 [label="Shellweight <= 0.124\nentropy = 0.722\nsamples = 5\nvalue = [1, 0, 4, 0]\nclass = adult", fillcolor="#6ab6ec"] ;
181 -> 189 ;
190 [label="entropy = 0.0\nsamples = 1\nvalue = [1, 0, 0, 0]\nclass = baby", fillcolor="#e58139"] ;
189 -> 190 ;
191 [label="entropy = 0.0\nsamples = 4\nvalue = [0, 0, 4, 0]\nclass = adult", fillcolor="#399de5"] ;
189 -> 191 ;
192 [label="entropy = 0.0\nsamples = 2\nvalue = [2, 0, 0, 0]\nclass = baby", fillcolor="#e58139"] ;
172 -> 192 ;
193 [label="Shuckedweight <= 0.185\nentropy = 0.866\nsamples = 11\nvalue = [9, 1, 1, 0]\nclass = baby", fillcolor="#ea9a61"] ;
13 -> 193 ;
194 [label="entropy = 0.0\nsamples = 1\nvalue = [0, 1, 0, 0]\nclass = adolescent", fillcolor="#47e539"] ;
193 -> 194 ;
195 [label="Visceraweight <= 0.114\nentropy = 0.469\nsamples = 10\nvalue = [9, 0, 1, 0]\nclass = baby", fillcolor="#e88f4f"] ;
193 -> 195 ;
196 [label="Length <= 0.463\nentropy = 0.918\nsamples = 3\nvalue = [2, 0, 1, 0]\nclass = baby", fillcolor="#f2c09c"] ;
195 -> 196 ;
197 [label="entropy = 0.0\nsamples = 2\nvalue = [2, 0, 0, 0]\nclass = baby", fillcolor="#e58139"] ;
196 -> 197 ;
198 [label="entropy = 0.0\nsamples = 1\nvalue = [0, 0, 1, 0]\nclass = adult", fillcolor="#399de5"] ;
196 -> 198 ;
199 [label="entropy = 0.0\nsamples = 7\nvalue = [7, 0, 0, 0]\nclass = baby", fillcolor="#e58139"] ;
195 -> 199 ;
200 [label="Wholeweight <= 0.511\nentropy = 0.439\nsamples = 11\nvalue = [10, 1, 0, 0]\nclass = baby", fillcolor="#e88e4d"] ;
12 -> 200 ;
201 [label="Height <= 0.107\nentropy = 0.918\nsamples = 3\nvalue = [2, 1, 0, 0]\nclass = baby", fillcolor="#f2c09c"] ;
200 -> 201 ;
202 [label="entropy = 0.0\nsamples = 2\nvalue = [2, 0, 0, 0]\nclass = baby", fillcolor="#e58139"] ;
201 -> 202 ;
203 [label="entropy = 0.0\nsamples = 1\nvalue = [0, 1, 0, 0]\nclass = adolescent", fillcolor="#47e539"] ;
201 -> 203 ;
204 [label="entropy = 0.0\nsamples = 8\nvalue = [8, 0, 0, 0]\nclass = baby", fillcolor="#e58139"] ;
200 -> 204 ;
205 [label="Shellweight <= 0.155\nentropy = 0.804\nsamples = 57\nvalue = [14, 0, 43, 0]\nclass = adult", fillcolor="#79bded"] ;
11 -> 205 ;
206 [label="Diameter <= 0.368\nentropy = 0.406\nsamples = 37\nvalue = [3, 0, 34, 0]\nclass = adult", fillcolor="#4aa6e7"] ;
205 -> 206 ;
207 [label="entropy = 0.0\nsamples = 18\nvalue = [0, 0, 18, 0]\nclass = adult", fillcolor="#399de5"] ;
206 -> 207 ;
208 [label="Visceraweight <= 0.134\nentropy = 0.629\nsamples = 19\nvalue = [3, 0, 16, 0]\nclass = adult", fillcolor="#5eafea"] ;
206 -> 208 ;
209 [label="entropy = 0.0\nsamples = 12\nvalue = [0, 0, 12, 0]\nclass = adult", fillcolor="#399de5"] ;
208 -> 209 ;
210 [label="Diameter <= 0.373\nentropy = 0.985\nsamples = 7\nvalue = [3, 0, 4, 0]\nclass = adult", fillcolor="#cee6f8"] ;
208 -> 210 ;
211 [label="entropy = 0.0\nsamples = 2\nvalue = [2, 0, 0, 0]\nclass = baby", fillcolor="#e58139"] ;
210 -> 211 ;
212 [label="Visceraweight <= 0.136\nentropy = 0.722\nsamples = 5\nvalue = [1, 0, 4, 0]\nclass = adult", fillcolor="#6ab6ec"] ;
210 -> 212 ;
213 [label="entropy = 0.0\nsamples = 1\nvalue = [1, 0, 0, 0]\nclass = baby", fillcolor="#e58139"] ;
212 -> 213 ;
214 [label="entropy = 0.0\nsamples = 4\nvalue = [0, 0, 4, 0]\nclass = adult", fillcolor="#399de5"] ;
212 -> 214 ;
215 [label="Length <= 0.493\nentropy = 0.993\nsamples = 20\nvalue = [11, 0, 9, 0]\nclass = baby", fillcolor="#fae8db"] ;
205 -> 215 ;
216 [label="Shellweight <= 0.171\nentropy = 0.881\nsamples = 10\nvalue = [3, 0, 7, 0]\nclass = adult", fillcolor="#8ec7f0"] ;
215 -> 216 ;
217 [label="entropy = 0.0\nsamples = 5\nvalue = [0, 0, 5, 0]\nclass = adult", fillcolor="#399de5"] ;
216 -> 217 ;
218 [label="Diameter <= 0.377\nentropy = 0.971\nsamples = 5\nvalue = [3, 0, 2, 0]\nclass = baby", fillcolor="#f6d5bd"] ;
216 -> 218 ;
219 [label="entropy = 0.0\nsamples = 3\nvalue = [3, 0, 0, 0]\nclass = baby", fillcolor="#e58139"] ;
218 -> 219 ;
220 [label="entropy = 0.0\nsamples = 2\nvalue = [0, 0, 2, 0]\nclass = adult", fillcolor="#399de5"] ;
218 -> 220 ;
221 [label="Diameter <= 0.387\nentropy = 0.722\nsamples = 10\nvalue = [8, 0, 2, 0]\nclass = baby", fillcolor="#eca06a"] ;
215 -> 221 ;
222 [label="entropy = 0.0\nsamples = 6\nvalue = [6, 0, 0, 0]\nclass = baby", fillcolor="#e58139"] ;
221 -> 222 ;
223 [label="Shellweight <= 0.164\nentropy = 1.0\nsamples = 4\nvalue = [2, 0, 2, 0]\nclass = baby", fillcolor="#ffffff"] ;
221 -> 223 ;
224 [label="entropy = 0.0\nsamples = 1\nvalue = [0, 0, 1, 0]\nclass = adult", fillcolor="#399de5"] ;
223 -> 224 ;
225 [label="Wholeweight <= 0.658\nentropy = 0.918\nsamples = 3\nvalue = [2, 0, 1, 0]\nclass = baby", fillcolor="#f2c09c"] ;
223 -> 225 ;
226 [label="entropy = 0.0\nsamples = 2\nvalue = [2, 0, 0, 0]\nclass = baby", fillcolor="#e58139"] ;
225 -> 226 ;
227 [label="entropy = 0.0\nsamples = 1\nvalue = [0, 0, 1, 0]\nclass = adult", fillcolor="#399de5"] ;
225 -> 227 ;
228 [label="Shellweight <= 0.289\nentropy = 0.904\nsamples = 62\nvalue = [49, 3, 10, 0]\nclass = baby", fillcolor="#eca06a"] ;
10 -> 228 ;
229 [label="Wholeweight <= 0.772\nentropy = 0.691\nsamples = 54\nvalue = [44, 0, 10, 0]\nclass = baby", fillcolor="#eb9e66"] ;
228 -> 229 ;
230 [label="Wholeweight <= 0.586\nentropy = 0.503\nsamples = 27\nvalue = [24, 0, 3, 0]\nclass = baby", fillcolor="#e89152"] ;
229 -> 230 ;
231 [label="Height <= 0.117\nentropy = 0.863\nsamples = 7\nvalue = [5, 0, 2, 0]\nclass = baby", fillcolor="#efb388"] ;
230 -> 231 ;
232 [label="entropy = 0.0\nsamples = 5\nvalue = [5, 0, 0, 0]\nclass = baby", fillcolor="#e58139"] ;
231 -> 232 ;
233 [label="entropy = 0.0\nsamples = 2\nvalue = [0, 0, 2, 0]\nclass = adult", fillcolor="#399de5"] ;
231 -> 233 ;
234 [label="Length <= 0.532\nentropy = 0.286\nsamples = 20\nvalue = [19, 0, 1, 0]\nclass = baby", fillcolor="#e68843"] ;
230 -> 234 ;
235 [label="entropy = 0.0\nsamples = 16\nvalue = [16, 0, 0, 0]\nclass = baby", fillcolor="#e58139"] ;
234 -> 235 ;
236 [label="Length <= 0.54\nentropy = 0.811\nsamples = 4\nvalue = [3, 0, 1, 0]\nclass = baby", fillcolor="#eeab7b"] ;
234 -> 236 ;
237 [label="entropy = 0.0\nsamples = 1\nvalue = [0, 0, 1, 0]\nclass = adult", fillcolor="#399de5"] ;
236 -> 237 ;
238 [label="entropy = 0.0\nsamples = 3\nvalue = [3, 0, 0, 0]\nclass = baby", fillcolor="#e58139"] ;
236 -> 238 ;
239 [label="Shellweight <= 0.172\nentropy = 0.826\nsamples = 27\nvalue = [20, 0, 7, 0]\nclass = baby", fillcolor="#eead7e"] ;
229 -> 239 ;
240 [label="entropy = 0.0\nsamples = 1\nvalue = [0, 0, 1, 0]\nclass = adult", fillcolor="#399de5"] ;
239 -> 240 ;
241 [label="Height <= 0.117\nentropy = 0.779\nsamples = 26\nvalue = [20, 0, 6, 0]\nclass = baby", fillcolor="#eda774"] ;
239 -> 241 ;
242 [label="Length <= 0.618\nentropy = 0.994\nsamples = 11\nvalue = [6, 0, 5, 0]\nclass = baby", fillcolor="#fbeade"] ;
241 -> 242 ;
243 [label="Height <= 0.098\nentropy = 0.991\nsamples = 9\nvalue = [4, 0, 5, 0]\nclass = adult", fillcolor="#d7ebfa"] ;
242 -> 243 ;
244 [label="entropy = 0.0\nsamples = 2\nvalue = [0, 0, 2, 0]\nclass = adult", fillcolor="#399de5"] ;
243 -> 244 ;
245 [label="Visceraweight <= 0.194\nentropy = 0.985\nsamples = 7\nvalue = [4, 0, 3, 0]\nclass = baby", fillcolor="#f8e0ce"] ;
243 -> 245 ;
246 [label="Wholeweight <= 0.792\nentropy = 0.971\nsamples = 5\nvalue = [2, 0, 3, 0]\nclass = adult", fillcolor="#bddef6"] ;
245 -> 246 ;
247 [label="entropy = 0.0\nsamples = 2\nvalue = [0, 0, 2, 0]\nclass = adult", fillcolor="#399de5"] ;
246 -> 247 ;
248 [label="Sex_M <= 0.5\nentropy = 0.918\nsamples = 3\nvalue = [2, 0, 1, 0]\nclass = baby", fillcolor="#f2c09c"] ;
246 -> 248 ;
249 [label="Length <= 0.537\nentropy = 1.0\nsamples = 2\nvalue = [1, 0, 1, 0]\nclass = baby", fillcolor="#ffffff"] ;
248 -> 249 ;
250 [label="entropy = 0.0\nsamples = 1\nvalue = [1, 0, 0, 0]\nclass = baby", fillcolor="#e58139"] ;
249 -> 250 ;
251 [label="entropy = 0.0\nsamples = 1\nvalue = [0, 0, 1, 0]\nclass = adult", fillcolor="#399de5"] ;
249 -> 251 ;
252 [label="entropy = 0.0\nsamples = 1\nvalue = [1, 0, 0, 0]\nclass = baby", fillcolor="#e58139"] ;
248 -> 252 ;
253 [label="entropy = 0.0\nsamples = 2\nvalue = [2, 0, 0, 0]\nclass = baby", fillcolor="#e58139"] ;
245 -> 253 ;
254 [label="entropy = 0.0\nsamples = 2\nvalue = [2, 0, 0, 0]\nclass = baby", fillcolor="#e58139"] ;
242 -> 254 ;
255 [label="Length <= 0.577\nentropy = 0.353\nsamples = 15\nvalue = [14, 0, 1, 0]\nclass = baby", fillcolor="#e78a47"] ;
241 -> 255 ;
256 [label="entropy = 0.0\nsamples = 9\nvalue = [9, 0, 0, 0]\nclass = baby", fillcolor="#e58139"] ;
255 -> 256 ;
257 [label="Visceraweight <= 0.164\nentropy = 0.65\nsamples = 6\nvalue = [5, 0, 1, 0]\nclass = baby", fillcolor="#ea9a61"] ;
255 -> 257 ;
258 [label="entropy = 0.0\nsamples = 1\nvalue = [0, 0, 1, 0]\nclass = adult", fillcolor="#399de5"] ;
257 -> 258 ;
259 [label="entropy = 0.0\nsamples = 5\nvalue = [5, 0, 0, 0]\nclass = baby", fillcolor="#e58139"] ;
257 -> 259 ;
260 [label="Shellweight <= 0.291\nentropy = 0.954\nsamples = 8\nvalue = [5, 3, 0, 0]\nclass = baby", fillcolor="#f5cdb0"] ;
228 -> 260 ;
261 [label="Wholeweight <= 0.915\nentropy = 0.811\nsamples = 4\nvalue = [1, 3, 0, 0]\nclass = adolescent", fillcolor="#84ee7b"] ;
260 -> 261 ;
262 [label="entropy = 0.0\nsamples = 3\nvalue = [0, 3, 0, 0]\nclass = adolescent", fillcolor="#47e539"] ;
261 -> 262 ;
263 [label="entropy = 0.0\nsamples = 1\nvalue = [1, 0, 0, 0]\nclass = baby", fillcolor="#e58139"] ;
261 -> 263 ;
264 [label="entropy = 0.0\nsamples = 4\nvalue = [4, 0, 0, 0]\nclass = baby", fillcolor="#e58139"] ;
260 -> 264 ;
265 [label="Length <= 0.438\nentropy = 0.636\nsamples = 705\nvalue = [109, 1, 595, 0]\nclass = adult", fillcolor="#5eafea"] ;
9 -> 265 ;
266 [label="Shellweight <= 0.07\nentropy = 0.45\nsamples = 479\nvalue = [45, 0, 434, 0]\nclass = adult", fillcolor="#4ea7e8"] ;
265 -> 266 ;
267 [label="Length <= 0.352\nentropy = 0.255\nsamples = 187\nvalue = [8, 0, 179, 0]\nclass = adult", fillcolor="#42a1e6"] ;
266 -> 267 ;
268 [label="Visceraweight <= 0.058\nentropy = 0.351\nsamples = 121\nvalue = [8, 0, 113, 0]\nclass = adult", fillcolor="#47a4e7"] ;
267 -> 268 ;
269 [label="Shuckedweight <= 0.078\nentropy = 0.323\nsamples = 119\nvalue = [7, 0, 112, 0]\nclass = adult", fillcolor="#45a3e7"] ;
268 -> 269 ;
270 [label="Height <= 0.078\nentropy = 0.41\nsamples = 85\nvalue = [7, 0, 78, 0]\nclass = adult", fillcolor="#4ba6e7"] ;
269 -> 270 ;
271 [label="entropy = 0.0\nsamples = 38\nvalue = [0, 0, 38, 0]\nclass = adult", fillcolor="#399de5"] ;
270 -> 271 ;
272 [label="Shuckedweight <= 0.078\nentropy = 0.607\nsamples = 47\nvalue = [7, 0, 40, 0]\nclass = adult", fillcolor="#5caeea"] ;
270 -> 272 ;
273 [label="Shuckedweight <= 0.071\nentropy = 0.559\nsamples = 46\nvalue = [6, 0, 40, 0]\nclass = adult", fillcolor="#57ace9"] ;
272 -> 273 ;
274 [label="Length <= 0.333\nentropy = 0.696\nsamples = 32\nvalue = [6, 0, 26, 0]\nclass = adult", fillcolor="#67b4eb"] ;
273 -> 274 ;
275 [label="Height <= 0.082\nentropy = 0.516\nsamples = 26\nvalue = [3, 0, 23, 0]\nclass = adult", fillcolor="#53aae8"] ;
274 -> 275 ;
276 [label="Visceraweight <= 0.032\nentropy = 0.881\nsamples = 10\nvalue = [3, 0, 7, 0]\nclass = adult", fillcolor="#8ec7f0"] ;
275 -> 276 ;
277 [label="entropy = 0.0\nsamples = 4\nvalue = [0, 0, 4, 0]\nclass = adult", fillcolor="#399de5"] ;
276 -> 277 ;
278 [label="Shellweight <= 0.039\nentropy = 1.0\nsamples = 6\nvalue = [3, 0, 3, 0]\nclass = baby", fillcolor="#ffffff"] ;
276 -> 278 ;
279 [label="entropy = 0.0\nsamples = 1\nvalue = [0, 0, 1, 0]\nclass = adult", fillcolor="#399de5"] ;
278 -> 279 ;
280 [label="Visceraweight <= 0.035\nentropy = 0.971\nsamples = 5\nvalue = [3, 0, 2, 0]\nclass = baby", fillcolor="#f6d5bd"] ;
278 -> 280 ;
281 [label="entropy = 0.0\nsamples = 3\nvalue = [3, 0, 0, 0]\nclass = baby", fillcolor="#e58139"] ;
280 -> 281 ;
282 [label="entropy = 0.0\nsamples = 2\nvalue = [0, 0, 2, 0]\nclass = adult", fillcolor="#399de5"] ;
280 -> 282 ;
283 [label="entropy = 0.0\nsamples = 16\nvalue = [0, 0, 16, 0]\nclass = adult", fillcolor="#399de5"] ;
275 -> 283 ;
284 [label="Shuckedweight <= 0.07\nentropy = 1.0\nsamples = 6\nvalue = [3, 0, 3, 0]\nclass = baby", fillcolor="#ffffff"] ;
274 -> 284 ;
285 [label="Wholeweight <= 0.17\nentropy = 0.811\nsamples = 4\nvalue = [1, 0, 3, 0]\nclass = adult", fillcolor="#7bbeee"] ;
284 -> 285 ;
286 [label="entropy = 0.0\nsamples = 3\nvalue = [0, 0, 3, 0]\nclass = adult", fillcolor="#399de5"] ;
285 -> 286 ;
287 [label="entropy = 0.0\nsamples = 1\nvalue = [1, 0, 0, 0]\nclass = baby", fillcolor="#e58139"] ;
285 -> 287 ;
288 [label="entropy = 0.0\nsamples = 2\nvalue = [2, 0, 0, 0]\nclass = baby", fillcolor="#e58139"] ;
284 -> 288 ;
289 [label="entropy = 0.0\nsamples = 14\nvalue = [0, 0, 14, 0]\nclass = adult", fillcolor="#399de5"] ;
273 -> 289 ;
290 [label="entropy = 0.0\nsamples = 1\nvalue = [1, 0, 0, 0]\nclass = baby", fillcolor="#e58139"] ;
272 -> 290 ;
291 [label="entropy = 0.0\nsamples = 34\nvalue = [0, 0, 34, 0]\nclass = adult", fillcolor="#399de5"] ;
269 -> 291 ;
292 [label="Shellweight <= 0.044\nentropy = 1.0\nsamples = 2\nvalue = [1, 0, 1, 0]\nclass = baby", fillcolor="#ffffff"] ;
268 -> 292 ;
293 [label="entropy = 0.0\nsamples = 1\nvalue = [0, 0, 1, 0]\nclass = adult", fillcolor="#399de5"] ;
292 -> 293 ;
294 [label="entropy = 0.0\nsamples = 1\nvalue = [1, 0, 0, 0]\nclass = baby", fillcolor="#e58139"] ;
292 -> 294 ;
295 [label="entropy = 0.0\nsamples = 66\nvalue = [0, 0, 66, 0]\nclass = adult", fillcolor="#399de5"] ;
267 -> 295 ;
296 [label="Visceraweight <= 0.061\nentropy = 0.548\nsamples = 292\nvalue = [37, 0, 255, 0]\nclass = adult", fillcolor="#56abe9"] ;
266 -> 296 ;
297 [label="Height <= 0.098\nentropy = 0.666\nsamples = 121\nvalue = [21, 0, 100, 0]\nclass = adult", fillcolor="#63b2ea"] ;
296 -> 297 ;
298 [label="Shuckedweight <= 0.113\nentropy = 0.371\nsamples = 70\nvalue = [5, 0, 65, 0]\nclass = adult", fillcolor="#48a5e7"] ;
297 -> 298 ;
299 [label="Wholeweight <= 0.233\nentropy = 0.496\nsamples = 46\nvalue = [5, 0, 41, 0]\nclass = adult", fillcolor="#51a9e8"] ;
298 -> 299 ;
300 [label="Shellweight <= 0.071\nentropy = 0.216\nsamples = 29\nvalue = [1, 0, 28, 0]\nclass = adult", fillcolor="#40a0e6"] ;
299 -> 300 ;
301 [label="Visceraweight <= 0.042\nentropy = 0.469\nsamples = 10\nvalue = [1, 0, 9, 0]\nclass = adult", fillcolor="#4fa8e8"] ;
300 -> 301 ;
302 [label="Diameter <= 0.273\nentropy = 0.811\nsamples = 4\nvalue = [1, 0, 3, 0]\nclass = adult", fillcolor="#7bbeee"] ;
301 -> 302 ;
303 [label="entropy = 0.0\nsamples = 3\nvalue = [0, 0, 3, 0]\nclass = adult", fillcolor="#399de5"] ;
302 -> 303 ;
304 [label="entropy = 0.0\nsamples = 1\nvalue = [1, 0, 0, 0]\nclass = baby", fillcolor="#e58139"] ;
302 -> 304 ;
305 [label="entropy = 0.0\nsamples = 6\nvalue = [0, 0, 6, 0]\nclass = adult", fillcolor="#399de5"] ;
301 -> 305 ;
306 [label="entropy = 0.0\nsamples = 19\nvalue = [0, 0, 19, 0]\nclass = adult", fillcolor="#399de5"] ;
300 -> 306 ;
307 [label="Shellweight <= 0.075\nentropy = 0.787\nsamples = 17\nvalue = [4, 0, 13, 0]\nclass = adult", fillcolor="#76bbed"] ;
299 -> 307 ;
308 [label="Shuckedweight <= 0.099\nentropy = 1.0\nsamples = 4\nvalue = [2, 0, 2, 0]\nclass = baby", fillcolor="#ffffff"] ;
307 -> 308 ;
309 [label="entropy = 0.0\nsamples = 1\nvalue = [1, 0, 0, 0]\nclass = baby", fillcolor="#e58139"] ;
308 -> 309 ;
310 [label="Shuckedweight <= 0.11\nentropy = 0.918\nsamples = 3\nvalue = [1, 0, 2, 0]\nclass = adult", fillcolor="#9ccef2"] ;
308 -> 310 ;
311 [label="entropy = 0.0\nsamples = 2\nvalue = [0, 0, 2, 0]\nclass = adult", fillcolor="#399de5"] ;
310 -> 311 ;
312 [label="entropy = 0.0\nsamples = 1\nvalue = [1, 0, 0, 0]\nclass = baby", fillcolor="#e58139"] ;
310 -> 312 ;
313 [label="Visceraweight <= 0.054\nentropy = 0.619\nsamples = 13\nvalue = [2, 0, 11, 0]\nclass = adult", fillcolor="#5dafea"] ;
307 -> 313 ;
314 [label="entropy = 0.0\nsamples = 8\nvalue = [0, 0, 8, 0]\nclass = adult", fillcolor="#399de5"] ;
313 -> 314 ;
315 [label="Visceraweight <= 0.056\nentropy = 0.971\nsamples = 5\nvalue = [2, 0, 3, 0]\nclass = adult", fillcolor="#bddef6"] ;
313 -> 315 ;
316 [label="Diameter <= 0.285\nentropy = 0.918\nsamples = 3\nvalue = [2, 0, 1, 0]\nclass = baby", fillcolor="#f2c09c"] ;
315 -> 316 ;
317 [label="entropy = 0.0\nsamples = 1\nvalue = [0, 0, 1, 0]\nclass = adult", fillcolor="#399de5"] ;
316 -> 317 ;
318 [label="entropy = 0.0\nsamples = 2\nvalue = [2, 0, 0, 0]\nclass = baby", fillcolor="#e58139"] ;
316 -> 318 ;
319 [label="entropy = 0.0\nsamples = 2\nvalue = [0, 0, 2, 0]\nclass = adult", fillcolor="#399de5"] ;
315 -> 319 ;
320 [label="entropy = 0.0\nsamples = 24\nvalue = [0, 0, 24, 0]\nclass = adult", fillcolor="#399de5"] ;
298 -> 320 ;
321 [label="Length <= 0.417\nentropy = 0.897\nsamples = 51\nvalue = [16, 0, 35, 0]\nclass = adult", fillcolor="#94caf1"] ;
297 -> 321 ;
322 [label="Diameter <= 0.282\nentropy = 0.946\nsamples = 44\nvalue = [16, 0, 28, 0]\nclass = adult", fillcolor="#aad5f4"] ;
321 -> 322 ;
323 [label="Visceraweight <= 0.046\nentropy = 0.918\nsamples = 15\nvalue = [10, 0, 5, 0]\nclass = baby", fillcolor="#f2c09c"] ;
322 -> 323 ;
324 [label="entropy = 0.0\nsamples = 4\nvalue = [4, 0, 0, 0]\nclass = baby", fillcolor="#e58139"] ;
323 -> 324 ;
325 [label="Wholeweight <= 0.256\nentropy = 0.994\nsamples = 11\nvalue = [6, 0, 5, 0]\nclass = baby", fillcolor="#fbeade"] ;
323 -> 325 ;
326 [label="Shellweight <= 0.082\nentropy = 0.954\nsamples = 8\nvalue = [3, 0, 5, 0]\nclass = adult", fillcolor="#b0d8f5"] ;
325 -> 326 ;
327 [label="Shuckedweight <= 0.072\nentropy = 0.65\nsamples = 6\nvalue = [1, 0, 5, 0]\nclass = adult", fillcolor="#61b1ea"] ;
326 -> 327 ;
328 [label="entropy = 0.0\nsamples = 1\nvalue = [1, 0, 0, 0]\nclass = baby", fillcolor="#e58139"] ;
327 -> 328 ;
329 [label="entropy = 0.0\nsamples = 5\nvalue = [0, 0, 5, 0]\nclass = adult", fillcolor="#399de5"] ;
327 -> 329 ;
330 [label="entropy = 0.0\nsamples = 2\nvalue = [2, 0, 0, 0]\nclass = baby", fillcolor="#e58139"] ;
326 -> 330 ;
331 [label="entropy = 0.0\nsamples = 3\nvalue = [3, 0, 0, 0]\nclass = baby", fillcolor="#e58139"] ;
325 -> 331 ;
332 [label="Shellweight <= 0.102\nentropy = 0.736\nsamples = 29\nvalue = [6, 0, 23, 0]\nclass = adult", fillcolor="#6db7ec"] ;
322 -> 332 ;
333 [label="Height <= 0.107\nentropy = 0.605\nsamples = 27\nvalue = [4, 0, 23, 0]\nclass = adult", fillcolor="#5baeea"] ;
332 -> 333 ;
334 [label="Visceraweight <= 0.052\nentropy = 0.439\nsamples = 22\nvalue = [2, 0, 20, 0]\nclass = adult", fillcolor="#4da7e8"] ;
333 -> 334 ;
335 [label="Shuckedweight <= 0.099\nentropy = 0.918\nsamples = 6\nvalue = [2, 0, 4, 0]\nclass = adult", fillcolor="#9ccef2"] ;
334 -> 335 ;
336 [label="entropy = 0.0\nsamples = 3\nvalue = [0, 0, 3, 0]\nclass = adult", fillcolor="#399de5"] ;
335 -> 336 ;
337 [label="Wholeweight <= 0.244\nentropy = 0.918\nsamples = 3\nvalue = [2, 0, 1, 0]\nclass = baby", fillcolor="#f2c09c"] ;
335 -> 337 ;
338 [label="entropy = 0.0\nsamples = 1\nvalue = [0, 0, 1, 0]\nclass = adult", fillcolor="#399de5"] ;
337 -> 338 ;
339 [label="entropy = 0.0\nsamples = 2\nvalue = [2, 0, 0, 0]\nclass = baby", fillcolor="#e58139"] ;
337 -> 339 ;
340 [label="entropy = 0.0\nsamples = 16\nvalue = [0, 0, 16, 0]\nclass = adult", fillcolor="#399de5"] ;
334 -> 340 ;
341 [label="Shuckedweight <= 0.139\nentropy = 0.971\nsamples = 5\nvalue = [2, 0, 3, 0]\nclass = adult", fillcolor="#bddef6"] ;
333 -> 341 ;
342 [label="entropy = 0.0\nsamples = 2\nvalue = [2, 0, 0, 0]\nclass = baby", fillcolor="#e58139"] ;
341 -> 342 ;
343 [label="entropy = 0.0\nsamples = 3\nvalue = [0, 0, 3, 0]\nclass = adult", fillcolor="#399de5"] ;
341 -> 343 ;
344 [label="entropy = 0.0\nsamples = 2\nvalue = [2, 0, 0, 0]\nclass = baby", fillcolor="#e58139"] ;
332 -> 344 ;
345 [label="entropy = 0.0\nsamples = 7\nvalue = [0, 0, 7, 0]\nclass = adult", fillcolor="#399de5"] ;
321 -> 345 ;
346 [label="Shellweight <= 0.095\nentropy = 0.448\nsamples = 171\nvalue = [16, 0, 155, 0]\nclass = adult", fillcolor="#4da7e8"] ;
296 -> 346 ;
347 [label="entropy = 0.0\nsamples = 74\nvalue = [0, 0, 74, 0]\nclass = adult", fillcolor="#399de5"] ;
346 -> 347 ;
348 [label="Length <= 0.407\nentropy = 0.646\nsamples = 97\nvalue = [16, 0, 81, 0]\nclass = adult", fillcolor="#60b0ea"] ;
346 -> 348 ;
349 [label="Shuckedweight <= 0.163\nentropy = 0.961\nsamples = 13\nvalue = [5, 0, 8, 0]\nclass = adult", fillcolor="#b5daf5"] ;
348 -> 349 ;
350 [label="Diameter <= 0.32\nentropy = 0.954\nsamples = 8\nvalue = [5, 0, 3, 0]\nclass = baby", fillcolor="#f5cdb0"] ;
349 -> 350 ;
351 [label="Visceraweight <= 0.066\nentropy = 0.863\nsamples = 7\nvalue = [5, 0, 2, 0]\nclass = baby", fillcolor="#efb388"] ;
350 -> 351 ;
352 [label="entropy = 0.0\nsamples = 2\nvalue = [2, 0, 0, 0]\nclass = baby", fillcolor="#e58139"] ;
351 -> 352 ;
353 [label="Height <= 0.098\nentropy = 0.971\nsamples = 5\nvalue = [3, 0, 2, 0]\nclass = baby", fillcolor="#f6d5bd"] ;
351 -> 353 ;
354 [label="entropy = 0.0\nsamples = 1\nvalue = [0, 0, 1, 0]\nclass = adult", fillcolor="#399de5"] ;
353 -> 354 ;
355 [label="Height <= 0.115\nentropy = 0.811\nsamples = 4\nvalue = [3, 0, 1, 0]\nclass = baby", fillcolor="#eeab7b"] ;
353 -> 355 ;
356 [label="entropy = 0.0\nsamples = 3\nvalue = [3, 0, 0, 0]\nclass = baby", fillcolor="#e58139"] ;
355 -> 356 ;
357 [label="entropy = 0.0\nsamples = 1\nvalue = [0, 0, 1, 0]\nclass = adult", fillcolor="#399de5"] ;
355 -> 357 ;
358 [label="entropy = 0.0\nsamples = 1\nvalue = [0, 0, 1, 0]\nclass = adult", fillcolor="#399de5"] ;
350 -> 358 ;
359 [label="entropy = 0.0\nsamples = 5\nvalue = [0, 0, 5, 0]\nclass = adult", fillcolor="#399de5"] ;
349 -> 359 ;
360 [label="Diameter <= 0.377\nentropy = 0.56\nsamples = 84\nvalue = [11, 0, 73, 0]\nclass = adult", fillcolor="#57ace9"] ;
348 -> 360 ;
361 [label="Shuckedweight <= 0.169\nentropy = 0.531\nsamples = 83\nvalue = [10, 0, 73, 0]\nclass = adult", fillcolor="#54aae9"] ;
360 -> 361 ;
362 [label="Shuckedweight <= 0.167\nentropy = 0.714\nsamples = 51\nvalue = [10, 0, 41, 0]\nclass = adult", fillcolor="#69b5eb"] ;
361 -> 362 ;
363 [label="Wholeweight <= 0.292\nentropy = 0.65\nsamples = 48\nvalue = [8, 0, 40, 0]\nclass = adult", fillcolor="#61b1ea"] ;
362 -> 363 ;
364 [label="entropy = 0.0\nsamples = 1\nvalue = [1, 0, 0, 0]\nclass = baby", fillcolor="#e58139"] ;
363 -> 364 ;
365 [label="Visceraweight <= 0.088\nentropy = 0.607\nsamples = 47\nvalue = [7, 0, 40, 0]\nclass = adult", fillcolor="#5caeea"] ;
363 -> 365 ;
366 [label="Height <= 0.085\nentropy = 0.519\nsamples = 43\nvalue = [5, 0, 38, 0]\nclass = adult", fillcolor="#53aae8"] ;
365 -> 366 ;
367 [label="entropy = 0.0\nsamples = 1\nvalue = [1, 0, 0, 0]\nclass = baby", fillcolor="#e58139"] ;
366 -> 367 ;
368 [label="Diameter <= 0.343\nentropy = 0.454\nsamples = 42\nvalue = [4, 0, 38, 0]\nclass = adult", fillcolor="#4ea7e8"] ;
366 -> 368 ;
369 [label="Shellweight <= 0.13\nentropy = 0.378\nsamples = 41\nvalue = [3, 0, 38, 0]\nclass = adult", fillcolor="#49a5e7"] ;
368 -> 369 ;
370 [label="Shuckedweight <= 0.124\nentropy = 0.292\nsamples = 39\nvalue = [2, 0, 37, 0]\nclass = adult", fillcolor="#44a2e6"] ;
369 -> 370 ;
371 [label="Shellweight <= 0.096\nentropy = 0.811\nsamples = 4\nvalue = [1, 0, 3, 0]\nclass = adult", fillcolor="#7bbeee"] ;
370 -> 371 ;
372 [label="entropy = 0.0\nsamples = 1\nvalue = [1, 0, 0, 0]\nclass = baby", fillcolor="#e58139"] ;
371 -> 372 ;
373 [label="entropy = 0.0\nsamples = 3\nvalue = [0, 0, 3, 0]\nclass = adult", fillcolor="#399de5"] ;
371 -> 373 ;
374 [label="Wholeweight <= 0.356\nentropy = 0.187\nsamples = 35\nvalue = [1, 0, 34, 0]\nclass = adult", fillcolor="#3fa0e6"] ;
370 -> 374 ;
375 [label="entropy = 0.0\nsamples = 23\nvalue = [0, 0, 23, 0]\nclass = adult", fillcolor="#399de5"] ;
374 -> 375 ;
376 [label="Height <= 0.117\nentropy = 0.414\nsamples = 12\nvalue = [1, 0, 11, 0]\nclass = adult", fillcolor="#4ba6e7"] ;
374 -> 376 ;
377 [label="entropy = 0.0\nsamples = 11\nvalue = [0, 0, 11, 0]\nclass = adult", fillcolor="#399de5"] ;
376 -> 377 ;
378 [label="entropy = 0.0\nsamples = 1\nvalue = [1, 0, 0, 0]\nclass = baby", fillcolor="#e58139"] ;
376 -> 378 ;
379 [label="Shuckedweight <= 0.156\nentropy = 1.0\nsamples = 2\nvalue = [1, 0, 1, 0]\nclass = baby", fillcolor="#ffffff"] ;
369 -> 379 ;
380 [label="entropy = 0.0\nsamples = 1\nvalue = [1, 0, 0, 0]\nclass = baby", fillcolor="#e58139"] ;
379 -> 380 ;
381 [label="entropy = 0.0\nsamples = 1\nvalue = [0, 0, 1, 0]\nclass = adult", fillcolor="#399de5"] ;
379 -> 381 ;
382 [label="entropy = 0.0\nsamples = 1\nvalue = [1, 0, 0, 0]\nclass = baby", fillcolor="#e58139"] ;
368 -> 382 ;
383 [label="Visceraweight <= 0.094\nentropy = 1.0\nsamples = 4\nvalue = [2, 0, 2, 0]\nclass = baby", fillcolor="#ffffff"] ;
365 -> 383 ;
384 [label="entropy = 0.0\nsamples = 2\nvalue = [2, 0, 0, 0]\nclass = baby", fillcolor="#e58139"] ;
383 -> 384 ;
385 [label="entropy = 0.0\nsamples = 2\nvalue = [0, 0, 2, 0]\nclass = adult", fillcolor="#399de5"] ;
383 -> 385 ;
386 [label="Wholeweight <= 0.368\nentropy = 0.918\nsamples = 3\nvalue = [2, 0, 1, 0]\nclass = baby", fillcolor="#f2c09c"] ;
362 -> 386 ;
387 [label="entropy = 0.0\nsamples = 1\nvalue = [0, 0, 1, 0]\nclass = adult", fillcolor="#399de5"] ;
386 -> 387 ;
388 [label="entropy = 0.0\nsamples = 2\nvalue = [2, 0, 0, 0]\nclass = baby", fillcolor="#e58139"] ;
386 -> 388 ;
389 [label="entropy = 0.0\nsamples = 32\nvalue = [0, 0, 32, 0]\nclass = adult", fillcolor="#399de5"] ;
361 -> 389 ;
390 [label="entropy = 0.0\nsamples = 1\nvalue = [1, 0, 0, 0]\nclass = baby", fillcolor="#e58139"] ;
360 -> 390 ;
391 [label="Shuckedweight <= 0.123\nentropy = 0.899\nsamples = 226\nvalue = [64, 1, 161, 0]\nclass = adult", fillcolor="#88c4ef"] ;
265 -> 391 ;
392 [label="Diameter <= 0.35\nentropy = 0.918\nsamples = 3\nvalue = [2, 1, 0, 0]\nclass = baby", fillcolor="#f2c09c"] ;
391 -> 392 ;
393 [label="entropy = 0.0\nsamples = 2\nvalue = [2, 0, 0, 0]\nclass = baby", fillcolor="#e58139"] ;
392 -> 393 ;
394 [label="entropy = 0.0\nsamples = 1\nvalue = [0, 1, 0, 0]\nclass = adolescent", fillcolor="#47e539"] ;
392 -> 394 ;
395 [label="Wholeweight <= 0.63\nentropy = 0.853\nsamples = 223\nvalue = [62, 0, 161, 0]\nclass = adult", fillcolor="#85c3ef"] ;
391 -> 395 ;
396 [label="Diameter <= 0.347\nentropy = 0.821\nsamples = 211\nvalue = [54, 0, 157, 0]\nclass = adult", fillcolor="#7dbfee"] ;
395 -> 396 ;
397 [label="Shellweight <= 0.135\nentropy = 0.65\nsamples = 66\nvalue = [11, 0, 55, 0]\nclass = adult", fillcolor="#61b1ea"] ;
396 -> 397 ;
398 [label="Shellweight <= 0.11\nentropy = 0.469\nsamples = 60\nvalue = [6, 0, 54, 0]\nclass = adult", fillcolor="#4fa8e8"] ;
397 -> 398 ;
399 [label="entropy = 0.0\nsamples = 19\nvalue = [0, 0, 19, 0]\nclass = adult", fillcolor="#399de5"] ;
398 -> 399 ;
400 [label="Diameter <= 0.322\nentropy = 0.601\nsamples = 41\nvalue = [6, 0, 35, 0]\nclass = adult", fillcolor="#5baee9"] ;
398 -> 400 ;
401 [label="Shuckedweight <= 0.157\nentropy = 0.811\nsamples = 4\nvalue = [3, 0, 1, 0]\nclass = baby", fillcolor="#eeab7b"] ;
400 -> 401 ;
402 [label="Shuckedweight <= 0.143\nentropy = 1.0\nsamples = 2\nvalue = [1, 0, 1, 0]\nclass = baby", fillcolor="#ffffff"] ;
401 -> 402 ;
403 [label="entropy = 0.0\nsamples = 1\nvalue = [1, 0, 0, 0]\nclass = baby", fillcolor="#e58139"] ;
402 -> 403 ;
404 [label="entropy = 0.0\nsamples = 1\nvalue = [0, 0, 1, 0]\nclass = adult", fillcolor="#399de5"] ;
402 -> 404 ;
405 [label="entropy = 0.0\nsamples = 2\nvalue = [2, 0, 0, 0]\nclass = baby", fillcolor="#e58139"] ;
401 -> 405 ;
406 [label="Diameter <= 0.343\nentropy = 0.406\nsamples = 37\nvalue = [3, 0, 34, 0]\nclass = adult", fillcolor="#4aa6e7"] ;
400 -> 406 ;
407 [label="Length <= 0.463\nentropy = 0.559\nsamples = 23\nvalue = [3, 0, 20, 0]\nclass = adult", fillcolor="#57ace9"] ;
406 -> 407 ;
408 [label="Length <= 0.453\nentropy = 0.439\nsamples = 22\nvalue = [2, 0, 20, 0]\nclass = adult", fillcolor="#4da7e8"] ;
407 -> 408 ;
409 [label="Shellweight <= 0.12\nentropy = 0.523\nsamples = 17\nvalue = [2, 0, 15, 0]\nclass = adult", fillcolor="#53aae8"] ;
408 -> 409 ;
410 [label="entropy = 0.0\nsamples = 9\nvalue = [0, 0, 9, 0]\nclass = adult", fillcolor="#399de5"] ;
409 -> 410 ;
411 [label="Wholeweight <= 0.429\nentropy = 0.811\nsamples = 8\nvalue = [2, 0, 6, 0]\nclass = adult", fillcolor="#7bbeee"] ;
409 -> 411 ;
412 [label="entropy = 0.0\nsamples = 4\nvalue = [0, 0, 4, 0]\nclass = adult", fillcolor="#399de5"] ;
411 -> 412 ;
413 [label="Visceraweight <= 0.091\nentropy = 1.0\nsamples = 4\nvalue = [2, 0, 2, 0]\nclass = baby", fillcolor="#ffffff"] ;
411 -> 413 ;
414 [label="entropy = 0.0\nsamples = 2\nvalue = [2, 0, 0, 0]\nclass = baby", fillcolor="#e58139"] ;
413 -> 414 ;
415 [label="entropy = 0.0\nsamples = 2\nvalue = [0, 0, 2, 0]\nclass = adult", fillcolor="#399de5"] ;
413 -> 415 ;
416 [label="entropy = 0.0\nsamples = 5\nvalue = [0, 0, 5, 0]\nclass = adult", fillcolor="#399de5"] ;
408 -> 416 ;
417 [label="entropy = 0.0\nsamples = 1\nvalue = [1, 0, 0, 0]\nclass = baby", fillcolor="#e58139"] ;
407 -> 417 ;
418 [label="entropy = 0.0\nsamples = 14\nvalue = [0, 0, 14, 0]\nclass = adult", fillcolor="#399de5"] ;
406 -> 418 ;
419 [label="Diameter <= 0.333\nentropy = 0.65\nsamples = 6\nvalue = [5, 0, 1, 0]\nclass = baby", fillcolor="#ea9a61"] ;
397 -> 419 ;
420 [label="Length <= 0.47\nentropy = 1.0\nsamples = 2\nvalue = [1, 0, 1, 0]\nclass = baby", fillcolor="#ffffff"] ;
419 -> 420 ;
421 [label="entropy = 0.0\nsamples = 1\nvalue = [1, 0, 0, 0]\nclass = baby", fillcolor="#e58139"] ;
420 -> 421 ;
422 [label="entropy = 0.0\nsamples = 1\nvalue = [0, 0, 1, 0]\nclass = adult", fillcolor="#399de5"] ;
420 -> 422 ;
423 [label="entropy = 0.0\nsamples = 4\nvalue = [4, 0, 0, 0]\nclass = baby", fillcolor="#e58139"] ;
419 -> 423 ;
424 [label="Shuckedweight <= 0.23\nentropy = 0.877\nsamples = 145\nvalue = [43, 0, 102, 0]\nclass = adult", fillcolor="#8cc6f0"] ;
396 -> 424 ;
425 [label="Visceraweight <= 0.112\nentropy = 0.97\nsamples = 83\nvalue = [33, 0, 50, 0]\nclass = adult", fillcolor="#bcdef6"] ;
424 -> 425 ;
426 [label="Shellweight <= 0.144\nentropy = 0.918\nsamples = 66\nvalue = [22, 0, 44, 0]\nclass = adult", fillcolor="#9ccef2"] ;
425 -> 426 ;
427 [label="Shuckedweight <= 0.186\nentropy = 0.75\nsamples = 42\nvalue = [9, 0, 33, 0]\nclass = adult", fillcolor="#6fb8ec"] ;
426 -> 427 ;
428 [label="Visceraweight <= 0.078\nentropy = 0.971\nsamples = 15\nvalue = [6, 0, 9, 0]\nclass = adult", fillcolor="#bddef6"] ;
427 -> 428 ;
429 [label="entropy = 0.0\nsamples = 3\nvalue = [3, 0, 0, 0]\nclass = baby", fillcolor="#e58139"] ;
428 -> 429 ;
430 [label="Visceraweight <= 0.086\nentropy = 0.811\nsamples = 12\nvalue = [3, 0, 9, 0]\nclass = adult", fillcolor="#7bbeee"] ;
428 -> 430 ;
431 [label="entropy = 0.0\nsamples = 5\nvalue = [0, 0, 5, 0]\nclass = adult", fillcolor="#399de5"] ;
430 -> 431 ;
432 [label="Shuckedweight <= 0.15\nentropy = 0.985\nsamples = 7\nvalue = [3, 0, 4, 0]\nclass = adult", fillcolor="#cee6f8"] ;
430 -> 432 ;
433 [label="entropy = 0.0\nsamples = 1\nvalue = [1, 0, 0, 0]\nclass = baby", fillcolor="#e58139"] ;
432 -> 433 ;
434 [label="Shuckedweight <= 0.168\nentropy = 0.918\nsamples = 6\nvalue = [2, 0, 4, 0]\nclass = adult", fillcolor="#9ccef2"] ;
432 -> 434 ;
435 [label="entropy = 0.0\nsamples = 3\nvalue = [0, 0, 3, 0]\nclass = adult", fillcolor="#399de5"] ;
434 -> 435 ;
436 [label="Height <= 0.113\nentropy = 0.918\nsamples = 3\nvalue = [2, 0, 1, 0]\nclass = baby", fillcolor="#f2c09c"] ;
434 -> 436 ;
437 [label="entropy = 0.0\nsamples = 1\nvalue = [1, 0, 0, 0]\nclass = baby", fillcolor="#e58139"] ;
436 -> 437 ;
438 [label="Length <= 0.455\nentropy = 1.0\nsamples = 2\nvalue = [1, 0, 1, 0]\nclass = baby", fillcolor="#ffffff"] ;
436 -> 438 ;
439 [label="entropy = 0.0\nsamples = 1\nvalue = [1, 0, 0, 0]\nclass = baby", fillcolor="#e58139"] ;
438 -> 439 ;
440 [label="entropy = 0.0\nsamples = 1\nvalue = [0, 0, 1, 0]\nclass = adult", fillcolor="#399de5"] ;
438 -> 440 ;
441 [label="Wholeweight <= 0.453\nentropy = 0.503\nsamples = 27\nvalue = [3, 0, 24, 0]\nclass = adult", fillcolor="#52a9e8"] ;
427 -> 441 ;
442 [label="Height <= 0.095\nentropy = 0.779\nsamples = 13\nvalue = [3, 0, 10, 0]\nclass = adult", fillcolor="#74baed"] ;
441 -> 442 ;
443 [label="entropy = 0.0\nsamples = 2\nvalue = [2, 0, 0, 0]\nclass = baby", fillcolor="#e58139"] ;
442 -> 443 ;
444 [label="Diameter <= 0.363\nentropy = 0.439\nsamples = 11\nvalue = [1, 0, 10, 0]\nclass = adult", fillcolor="#4da7e8"] ;
442 -> 444 ;
445 [label="entropy = 0.0\nsamples = 8\nvalue = [0, 0, 8, 0]\nclass = adult", fillcolor="#399de5"] ;
444 -> 445 ;
446 [label="Wholeweight <= 0.436\nentropy = 0.918\nsamples = 3\nvalue = [1, 0, 2, 0]\nclass = adult", fillcolor="#9ccef2"] ;
444 -> 446 ;
447 [label="entropy = 0.0\nsamples = 2\nvalue = [0, 0, 2, 0]\nclass = adult", fillcolor="#399de5"] ;
446 -> 447 ;
448 [label="entropy = 0.0\nsamples = 1\nvalue = [1, 0, 0, 0]\nclass = baby", fillcolor="#e58139"] ;
446 -> 448 ;
449 [label="entropy = 0.0\nsamples = 14\nvalue = [0, 0, 14, 0]\nclass = adult", fillcolor="#399de5"] ;
441 -> 449 ;
450 [label="Shuckedweight <= 0.197\nentropy = 0.995\nsamples = 24\nvalue = [13, 0, 11, 0]\nclass = baby", fillcolor="#fbece1"] ;
426 -> 450 ;
451 [label="Length <= 0.463\nentropy = 0.89\nsamples = 13\nvalue = [9, 0, 4, 0]\nclass = baby", fillcolor="#f1b991"] ;
450 -> 451 ;
452 [label="Shuckedweight <= 0.184\nentropy = 0.918\nsamples = 3\nvalue = [1, 0, 2, 0]\nclass = adult", fillcolor="#9ccef2"] ;
451 -> 452 ;
453 [label="entropy = 0.0\nsamples = 2\nvalue = [0, 0, 2, 0]\nclass = adult", fillcolor="#399de5"] ;
452 -> 453 ;
454 [label="entropy = 0.0\nsamples = 1\nvalue = [1, 0, 0, 0]\nclass = baby", fillcolor="#e58139"] ;
452 -> 454 ;
455 [label="Wholeweight <= 0.45\nentropy = 0.722\nsamples = 10\nvalue = [8, 0, 2, 0]\nclass = baby", fillcolor="#eca06a"] ;
451 -> 455 ;
456 [label="Shellweight <= 0.149\nentropy = 0.971\nsamples = 5\nvalue = [3, 0, 2, 0]\nclass = baby", fillcolor="#f6d5bd"] ;
455 -> 456 ;
457 [label="entropy = 0.0\nsamples = 3\nvalue = [3, 0, 0, 0]\nclass = baby", fillcolor="#e58139"] ;
456 -> 457 ;
458 [label="entropy = 0.0\nsamples = 2\nvalue = [0, 0, 2, 0]\nclass = adult", fillcolor="#399de5"] ;
456 -> 458 ;
459 [label="entropy = 0.0\nsamples = 5\nvalue = [5, 0, 0, 0]\nclass = baby", fillcolor="#e58139"] ;
455 -> 459 ;
460 [label="Wholeweight <= 0.497\nentropy = 0.946\nsamples = 11\nvalue = [4, 0, 7, 0]\nclass = adult", fillcolor="#aad5f4"] ;
450 -> 460 ;
461 [label="Visceraweight <= 0.088\nentropy = 0.592\nsamples = 7\nvalue = [1, 0, 6, 0]\nclass = adult", fillcolor="#5aade9"] ;
460 -> 461 ;
462 [label="entropy = 0.0\nsamples = 1\nvalue = [1, 0, 0, 0]\nclass = baby", fillcolor="#e58139"] ;
461 -> 462 ;
463 [label="entropy = 0.0\nsamples = 6\nvalue = [0, 0, 6, 0]\nclass = adult", fillcolor="#399de5"] ;
461 -> 463 ;
464 [label="Visceraweight <= 0.094\nentropy = 0.811\nsamples = 4\nvalue = [3, 0, 1, 0]\nclass = baby", fillcolor="#eeab7b"] ;
460 -> 464 ;
465 [label="entropy = 0.0\nsamples = 1\nvalue = [0, 0, 1, 0]\nclass = adult", fillcolor="#399de5"] ;
464 -> 465 ;
466 [label="entropy = 0.0\nsamples = 3\nvalue = [3, 0, 0, 0]\nclass = baby", fillcolor="#e58139"] ;
464 -> 466 ;
467 [label="Length <= 0.472\nentropy = 0.937\nsamples = 17\nvalue = [11, 0, 6, 0]\nclass = baby", fillcolor="#f3c6a5"] ;
425 -> 467 ;
468 [label="entropy = 0.0\nsamples = 4\nvalue = [4, 0, 0, 0]\nclass = baby", fillcolor="#e58139"] ;
467 -> 468 ;
469 [label="Visceraweight <= 0.115\nentropy = 0.996\nsamples = 13\nvalue = [7, 0, 6, 0]\nclass = baby", fillcolor="#fbede3"] ;
467 -> 469 ;
470 [label="entropy = 0.0\nsamples = 1\nvalue = [0, 0, 1, 0]\nclass = adult", fillcolor="#399de5"] ;
469 -> 470 ;
471 [label="Wholeweight <= 0.49\nentropy = 0.98\nsamples = 12\nvalue = [7, 0, 5, 0]\nclass = baby", fillcolor="#f8dbc6"] ;
469 -> 471 ;
472 [label="entropy = 0.0\nsamples = 2\nvalue = [2, 0, 0, 0]\nclass = baby", fillcolor="#e58139"] ;
471 -> 472 ;
473 [label="Length <= 0.477\nentropy = 1.0\nsamples = 10\nvalue = [5, 0, 5, 0]\nclass = baby", fillcolor="#ffffff"] ;
471 -> 473 ;
474 [label="entropy = 0.0\nsamples = 1\nvalue = [0, 0, 1, 0]\nclass = adult", fillcolor="#399de5"] ;
473 -> 474 ;
475 [label="Shuckedweight <= 0.202\nentropy = 0.991\nsamples = 9\nvalue = [5, 0, 4, 0]\nclass = baby", fillcolor="#fae6d7"] ;
473 -> 475 ;
476 [label="entropy = 0.0\nsamples = 2\nvalue = [0, 0, 2, 0]\nclass = adult", fillcolor="#399de5"] ;
475 -> 476 ;
477 [label="Shellweight <= 0.157\nentropy = 0.863\nsamples = 7\nvalue = [5, 0, 2, 0]\nclass = baby", fillcolor="#efb388"] ;
475 -> 477 ;
478 [label="entropy = 0.0\nsamples = 3\nvalue = [3, 0, 0, 0]\nclass = baby", fillcolor="#e58139"] ;
477 -> 478 ;
479 [label="Height <= 0.117\nentropy = 1.0\nsamples = 4\nvalue = [2, 0, 2, 0]\nclass = baby", fillcolor="#ffffff"] ;
477 -> 479 ;
480 [label="entropy = 0.0\nsamples = 1\nvalue = [0, 0, 1, 0]\nclass = adult", fillcolor="#399de5"] ;
479 -> 480 ;
481 [label="Shellweight <= 0.165\nentropy = 0.918\nsamples = 3\nvalue = [2, 0, 1, 0]\nclass = baby", fillcolor="#f2c09c"] ;
479 -> 481 ;
482 [label="entropy = 0.0\nsamples = 1\nvalue = [0, 0, 1, 0]\nclass = adult", fillcolor="#399de5"] ;
481 -> 482 ;
483 [label="entropy = 0.0\nsamples = 2\nvalue = [2, 0, 0, 0]\nclass = baby", fillcolor="#e58139"] ;
481 -> 483 ;
484 [label="Shuckedweight <= 0.282\nentropy = 0.637\nsamples = 62\nvalue = [10, 0, 52, 0]\nclass = adult", fillcolor="#5fb0ea"] ;
424 -> 484 ;
485 [label="Visceraweight <= 0.149\nentropy = 0.722\nsamples = 50\nvalue = [10, 0, 40, 0]\nclass = adult", fillcolor="#6ab6ec"] ;
484 -> 485 ;
486 [label="Diameter <= 0.363\nentropy = 0.65\nsamples = 48\nvalue = [8, 0, 40, 0]\nclass = adult", fillcolor="#61b1ea"] ;
485 -> 486 ;
487 [label="entropy = 0.0\nsamples = 13\nvalue = [0, 0, 13, 0]\nclass = adult", fillcolor="#399de5"] ;
486 -> 487 ;
488 [label="Shuckedweight <= 0.275\nentropy = 0.776\nsamples = 35\nvalue = [8, 0, 27, 0]\nclass = adult", fillcolor="#74baed"] ;
486 -> 488 ;
489 [label="Visceraweight <= 0.098\nentropy = 0.684\nsamples = 33\nvalue = [6, 0, 27, 0]\nclass = adult", fillcolor="#65b3eb"] ;
488 -> 489 ;
490 [label="Shellweight <= 0.13\nentropy = 0.811\nsamples = 4\nvalue = [3, 0, 1, 0]\nclass = baby", fillcolor="#eeab7b"] ;
489 -> 490 ;
491 [label="entropy = 0.0\nsamples = 1\nvalue = [0, 0, 1, 0]\nclass = adult", fillcolor="#399de5"] ;
490 -> 491 ;
492 [label="entropy = 0.0\nsamples = 3\nvalue = [3, 0, 0, 0]\nclass = baby", fillcolor="#e58139"] ;
490 -> 492 ;
493 [label="Shellweight <= 0.177\nentropy = 0.48\nsamples = 29\nvalue = [3, 0, 26, 0]\nclass = adult", fillcolor="#50a8e8"] ;
489 -> 493 ;
494 [label="entropy = 0.0\nsamples = 21\nvalue = [0, 0, 21, 0]\nclass = adult", fillcolor="#399de5"] ;
493 -> 494 ;
495 [label="Shellweight <= 0.18\nentropy = 0.954\nsamples = 8\nvalue = [3, 0, 5, 0]\nclass = adult", fillcolor="#b0d8f5"] ;
493 -> 495 ;
496 [label="entropy = 0.0\nsamples = 2\nvalue = [2, 0, 0, 0]\nclass = baby", fillcolor="#e58139"] ;
495 -> 496 ;
497 [label="Diameter <= 0.412\nentropy = 0.65\nsamples = 6\nvalue = [1, 0, 5, 0]\nclass = adult", fillcolor="#61b1ea"] ;
495 -> 497 ;
498 [label="entropy = 0.0\nsamples = 5\nvalue = [0, 0, 5, 0]\nclass = adult", fillcolor="#399de5"] ;
497 -> 498 ;
499 [label="entropy = 0.0\nsamples = 1\nvalue = [1, 0, 0, 0]\nclass = baby", fillcolor="#e58139"] ;
497 -> 499 ;
500 [label="entropy = 0.0\nsamples = 2\nvalue = [2, 0, 0, 0]\nclass = baby", fillcolor="#e58139"] ;
488 -> 500 ;
501 [label="entropy = 0.0\nsamples = 2\nvalue = [2, 0, 0, 0]\nclass = baby", fillcolor="#e58139"] ;
485 -> 501 ;
502 [label="entropy = 0.0\nsamples = 12\nvalue = [0, 0, 12, 0]\nclass = adult", fillcolor="#399de5"] ;
484 -> 502 ;
503 [label="Diameter <= 0.382\nentropy = 0.918\nsamples = 12\nvalue = [8, 0, 4, 0]\nclass = baby", fillcolor="#f2c09c"] ;
395 -> 503 ;
504 [label="Length <= 0.522\nentropy = 0.722\nsamples = 5\nvalue = [1, 0, 4, 0]\nclass = adult", fillcolor="#6ab6ec"] ;
503 -> 504 ;
505 [label="entropy = 0.0\nsamples = 4\nvalue = [0, 0, 4, 0]\nclass = adult", fillcolor="#399de5"] ;
504 -> 505 ;
506 [label="entropy = 0.0\nsamples = 1\nvalue = [1, 0, 0, 0]\nclass = baby", fillcolor="#e58139"] ;
504 -> 506 ;
507 [label="entropy = 0.0\nsamples = 7\nvalue = [7, 0, 0, 0]\nclass = baby", fillcolor="#e58139"] ;
503 -> 507 ;
508 [label="Height <= 0.153\nentropy = 1.047\nsamples = 2852\nvalue = [2175, 238, 423, 16]\nclass = baby", fillcolor="#eca470"] ;
0 -> 508 [labeldistance=2.5, labelangle=-45, headlabel="False"] ;
509 [label="Diameter <= 0.442\nentropy = 1.074\nsamples = 1229\nvalue = [850, 45, 331, 3]\nclass = baby", fillcolor="#f0b68d"] ;
508 -> 509 ;
510 [label="Diameter <= 0.292\nentropy = 1.153\nsamples = 852\nvalue = [549, 38, 263, 2]\nclass = baby", fillcolor="#f2c29f"] ;
509 -> 510 ;
511 [label="entropy = 0.0\nsamples = 8\nvalue = [0, 0, 8, 0]\nclass = adult", fillcolor="#399de5"] ;
510 -> 511 ;
512 [label="Shuckedweight <= 0.303\nentropy = 1.147\nsamples = 844\nvalue = [549, 38, 255, 2]\nclass = baby", fillcolor="#f2c09c"] ;
510 -> 512 ;
513 [label="Shellweight <= 0.194\nentropy = 1.139\nsamples = 502\nvalue = [346, 29, 125, 2]\nclass = baby", fillcolor="#f0b58b"] ;
512 -> 513 ;
514 [label="Sex_I <= 0.5\nentropy = 1.097\nsamples = 323\nvalue = [202, 9, 112, 0]\nclass = baby", fillcolor="#f4c9ab"] ;
513 -> 514 ;
515 [label="Visceraweight <= 0.166\nentropy = 0.961\nsamples = 182\nvalue = [137, 7, 38, 0]\nclass = baby", fillcolor="#eda877"] ;
514 -> 515 ;
516 [label="Shuckedweight <= 0.23\nentropy = 0.983\nsamples = 167\nvalue = [123, 6, 38, 0]\nclass = baby", fillcolor="#eeac7d"] ;
515 -> 516 ;
517 [label="Shuckedweight <= 0.206\nentropy = 0.813\nsamples = 106\nvalue = [88, 6, 12, 0]\nclass = baby", fillcolor="#ea995f"] ;
516 -> 517 ;
518 [label="Shuckedweight <= 0.174\nentropy = 0.7\nsamples = 75\nvalue = [65, 5, 5, 0]\nclass = baby", fillcolor="#e99355"] ;
517 -> 518 ;
519 [label="Shuckedweight <= 0.172\nentropy = 0.955\nsamples = 33\nvalue = [26, 3, 4, 0]\nclass = baby", fillcolor="#eb9f69"] ;
518 -> 519 ;
520 [label="Wholeweight <= 0.406\nentropy = 0.794\nsamples = 31\nvalue = [26, 3, 2, 0]\nclass = baby", fillcolor="#ea985c"] ;
519 -> 520 ;
521 [label="Sex_M <= 0.5\nentropy = 0.991\nsamples = 13\nvalue = [10, 1, 2, 0]\nclass = baby", fillcolor="#eca36f"] ;
520 -> 521 ;
522 [label="Shuckedweight <= 0.138\nentropy = 0.971\nsamples = 5\nvalue = [3, 0, 2, 0]\nclass = baby", fillcolor="#f6d5bd"] ;
521 -> 522 ;
523 [label="entropy = 0.0\nsamples = 1\nvalue = [0, 0, 1, 0]\nclass = adult", fillcolor="#399de5"] ;
522 -> 523 ;
524 [label="Shuckedweight <= 0.149\nentropy = 0.811\nsamples = 4\nvalue = [3, 0, 1, 0]\nclass = baby", fillcolor="#eeab7b"] ;
522 -> 524 ;
525 [label="entropy = 0.0\nsamples = 3\nvalue = [3, 0, 0, 0]\nclass = baby", fillcolor="#e58139"] ;
524 -> 525 ;
526 [label="entropy = 0.0\nsamples = 1\nvalue = [0, 0, 1, 0]\nclass = adult", fillcolor="#399de5"] ;
524 -> 526 ;
527 [label="Visceraweight <= 0.057\nentropy = 0.544\nsamples = 8\nvalue = [7, 1, 0, 0]\nclass = baby", fillcolor="#e99355"] ;
521 -> 527 ;
528 [label="entropy = 0.0\nsamples = 1\nvalue = [0, 1, 0, 0]\nclass = adolescent", fillcolor="#47e539"] ;
527 -> 528 ;
529 [label="entropy = 0.0\nsamples = 7\nvalue = [7, 0, 0, 0]\nclass = baby", fillcolor="#e58139"] ;
527 -> 529 ;
530 [label="Visceraweight <= 0.073\nentropy = 0.503\nsamples = 18\nvalue = [16, 2, 0, 0]\nclass = baby", fillcolor="#e89152"] ;
520 -> 530 ;
531 [label="entropy = 0.0\nsamples = 1\nvalue = [0, 1, 0, 0]\nclass = adolescent", fillcolor="#47e539"] ;
530 -> 531 ;
532 [label="Shellweight <= 0.134\nentropy = 0.323\nsamples = 17\nvalue = [16, 1, 0, 0]\nclass = baby", fillcolor="#e78945"] ;
530 -> 532 ;
533 [label="Visceraweight <= 0.104\nentropy = 0.811\nsamples = 4\nvalue = [3, 1, 0, 0]\nclass = baby", fillcolor="#eeab7b"] ;
532 -> 533 ;
534 [label="entropy = 0.0\nsamples = 1\nvalue = [0, 1, 0, 0]\nclass = adolescent", fillcolor="#47e539"] ;
533 -> 534 ;
535 [label="entropy = 0.0\nsamples = 3\nvalue = [3, 0, 0, 0]\nclass = baby", fillcolor="#e58139"] ;
533 -> 535 ;
536 [label="entropy = 0.0\nsamples = 13\nvalue = [13, 0, 0, 0]\nclass = baby", fillcolor="#e58139"] ;
532 -> 536 ;
537 [label="entropy = 0.0\nsamples = 2\nvalue = [0, 0, 2, 0]\nclass = adult", fillcolor="#399de5"] ;
519 -> 537 ;
538 [label="Wholeweight <= 0.604\nentropy = 0.437\nsamples = 42\nvalue = [39, 2, 1, 0]\nclass = baby", fillcolor="#e78a48"] ;
518 -> 538 ;
539 [label="Length <= 0.463\nentropy = 0.33\nsamples = 41\nvalue = [39, 1, 1, 0]\nclass = baby", fillcolor="#e68743"] ;
538 -> 539 ;
540 [label="entropy = 0.0\nsamples = 23\nvalue = [23, 0, 0, 0]\nclass = baby", fillcolor="#e58139"] ;
539 -> 540 ;
541 [label="Length <= 0.472\nentropy = 0.614\nsamples = 18\nvalue = [16, 1, 1, 0]\nclass = baby", fillcolor="#e89050"] ;
539 -> 541 ;
542 [label="Diameter <= 0.365\nentropy = 1.149\nsamples = 7\nvalue = [5, 1, 1, 0]\nclass = baby", fillcolor="#eeab7b"] ;
541 -> 542 ;
543 [label="Visceraweight <= 0.109\nentropy = 0.65\nsamples = 6\nvalue = [5, 1, 0, 0]\nclass = baby", fillcolor="#ea9a61"] ;
542 -> 543 ;
544 [label="entropy = 0.0\nsamples = 1\nvalue = [0, 1, 0, 0]\nclass = adolescent", fillcolor="#47e539"] ;
543 -> 544 ;
545 [label="entropy = 0.0\nsamples = 5\nvalue = [5, 0, 0, 0]\nclass = baby", fillcolor="#e58139"] ;
543 -> 545 ;
546 [label="entropy = 0.0\nsamples = 1\nvalue = [0, 0, 1, 0]\nclass = adult", fillcolor="#399de5"] ;
542 -> 546 ;
547 [label="entropy = 0.0\nsamples = 11\nvalue = [11, 0, 0, 0]\nclass = baby", fillcolor="#e58139"] ;
541 -> 547 ;
548 [label="entropy = 0.0\nsamples = 1\nvalue = [0, 1, 0, 0]\nclass = adolescent", fillcolor="#47e539"] ;
538 -> 548 ;
549 [label="Shuckedweight <= 0.221\nentropy = 0.964\nsamples = 31\nvalue = [23, 1, 7, 0]\nclass = baby", fillcolor="#eeab7b"] ;
517 -> 549 ;
550 [label="Visceraweight <= 0.111\nentropy = 0.902\nsamples = 22\nvalue = [15, 0, 7, 0]\nclass = baby", fillcolor="#f1bc95"] ;
549 -> 550 ;
551 [label="Height <= 0.133\nentropy = 0.722\nsamples = 5\nvalue = [1, 0, 4, 0]\nclass = adult", fillcolor="#6ab6ec"] ;
550 -> 551 ;
552 [label="entropy = 0.0\nsamples = 4\nvalue = [0, 0, 4, 0]\nclass = adult", fillcolor="#399de5"] ;
551 -> 552 ;
553 [label="entropy = 0.0\nsamples = 1\nvalue = [1, 0, 0, 0]\nclass = baby", fillcolor="#e58139"] ;
551 -> 553 ;
554 [label="Visceraweight <= 0.117\nentropy = 0.672\nsamples = 17\nvalue = [14, 0, 3, 0]\nclass = baby", fillcolor="#eb9c63"] ;
550 -> 554 ;
555 [label="entropy = 0.0\nsamples = 5\nvalue = [5, 0, 0, 0]\nclass = baby", fillcolor="#e58139"] ;
554 -> 555 ;
556 [label="Visceraweight <= 0.118\nentropy = 0.811\nsamples = 12\nvalue = [9, 0, 3, 0]\nclass = baby", fillcolor="#eeab7b"] ;
554 -> 556 ;
557 [label="entropy = 0.0\nsamples = 1\nvalue = [0, 0, 1, 0]\nclass = adult", fillcolor="#399de5"] ;
556 -> 557 ;
558 [label="Wholeweight <= 0.525\nentropy = 0.684\nsamples = 11\nvalue = [9, 0, 2, 0]\nclass = baby", fillcolor="#eb9d65"] ;
556 -> 558 ;
559 [label="Height <= 0.133\nentropy = 1.0\nsamples = 4\nvalue = [2, 0, 2, 0]\nclass = baby", fillcolor="#ffffff"] ;
558 -> 559 ;
560 [label="entropy = 0.0\nsamples = 2\nvalue = [0, 0, 2, 0]\nclass = adult", fillcolor="#399de5"] ;
559 -> 560 ;
561 [label="entropy = 0.0\nsamples = 2\nvalue = [2, 0, 0, 0]\nclass = baby", fillcolor="#e58139"] ;
559 -> 561 ;
562 [label="entropy = 0.0\nsamples = 7\nvalue = [7, 0, 0, 0]\nclass = baby", fillcolor="#e58139"] ;
558 -> 562 ;
563 [label="Diameter <= 0.385\nentropy = 0.503\nsamples = 9\nvalue = [8, 1, 0, 0]\nclass = baby", fillcolor="#e89152"] ;
549 -> 563 ;
564 [label="entropy = 0.0\nsamples = 7\nvalue = [7, 0, 0, 0]\nclass = baby", fillcolor="#e58139"] ;
563 -> 564 ;
565 [label="Visceraweight <= 0.126\nentropy = 1.0\nsamples = 2\nvalue = [1, 1, 0, 0]\nclass = baby", fillcolor="#ffffff"] ;
563 -> 565 ;
566 [label="entropy = 0.0\nsamples = 1\nvalue = [0, 1, 0, 0]\nclass = adolescent", fillcolor="#47e539"] ;
565 -> 566 ;
567 [label="entropy = 0.0\nsamples = 1\nvalue = [1, 0, 0, 0]\nclass = baby", fillcolor="#e58139"] ;
565 -> 567 ;
568 [label="Visceraweight <= 0.1\nentropy = 0.984\nsamples = 61\nvalue = [35, 0, 26, 0]\nclass = baby", fillcolor="#f8dfcc"] ;
516 -> 568 ;
569 [label="entropy = 0.0\nsamples = 4\nvalue = [4, 0, 0, 0]\nclass = baby", fillcolor="#e58139"] ;
568 -> 569 ;
570 [label="Length <= 0.535\nentropy = 0.994\nsamples = 57\nvalue = [31, 0, 26, 0]\nclass = baby", fillcolor="#fbebdf"] ;
568 -> 570 ;
571 [label="Wholeweight <= 0.547\nentropy = 0.984\nsamples = 54\nvalue = [31, 0, 23, 0]\nclass = baby", fillcolor="#f8decc"] ;
570 -> 571 ;
572 [label="Length <= 0.498\nentropy = 0.764\nsamples = 9\nvalue = [2, 0, 7, 0]\nclass = adult", fillcolor="#72b9ec"] ;
571 -> 572 ;
573 [label="Visceraweight <= 0.131\nentropy = 0.918\nsamples = 6\nvalue = [2, 0, 4, 0]\nclass = adult", fillcolor="#9ccef2"] ;
572 -> 573 ;
574 [label="entropy = 0.0\nsamples = 4\nvalue = [0, 0, 4, 0]\nclass = adult", fillcolor="#399de5"] ;
573 -> 574 ;
575 [label="entropy = 0.0\nsamples = 2\nvalue = [2, 0, 0, 0]\nclass = baby", fillcolor="#e58139"] ;
573 -> 575 ;
576 [label="entropy = 0.0\nsamples = 3\nvalue = [0, 0, 3, 0]\nclass = adult", fillcolor="#399de5"] ;
572 -> 576 ;
577 [label="Wholeweight <= 0.657\nentropy = 0.939\nsamples = 45\nvalue = [29, 0, 16, 0]\nclass = baby", fillcolor="#f3c7a6"] ;
571 -> 577 ;
578 [label="Shuckedweight <= 0.271\nentropy = 0.959\nsamples = 42\nvalue = [26, 0, 16, 0]\nclass = baby", fillcolor="#f5cfb3"] ;
577 -> 578 ;
579 [label="Shellweight <= 0.176\nentropy = 0.828\nsamples = 23\nvalue = [17, 0, 6, 0]\nclass = baby", fillcolor="#eead7f"] ;
578 -> 579 ;
580 [label="Visceraweight <= 0.129\nentropy = 0.994\nsamples = 11\nvalue = [6, 0, 5, 0]\nclass = baby", fillcolor="#fbeade"] ;
579 -> 580 ;
581 [label="entropy = 0.0\nsamples = 4\nvalue = [4, 0, 0, 0]\nclass = baby", fillcolor="#e58139"] ;
580 -> 581 ;
582 [label="Shellweight <= 0.161\nentropy = 0.863\nsamples = 7\nvalue = [2, 0, 5, 0]\nclass = adult", fillcolor="#88c4ef"] ;
580 -> 582 ;
583 [label="Diameter <= 0.385\nentropy = 0.918\nsamples = 3\nvalue = [2, 0, 1, 0]\nclass = baby", fillcolor="#f2c09c"] ;
582 -> 583 ;
584 [label="entropy = 0.0\nsamples = 2\nvalue = [2, 0, 0, 0]\nclass = baby", fillcolor="#e58139"] ;
583 -> 584 ;
585 [label="entropy = 0.0\nsamples = 1\nvalue = [0, 0, 1, 0]\nclass = adult", fillcolor="#399de5"] ;
583 -> 585 ;
586 [label="entropy = 0.0\nsamples = 4\nvalue = [0, 0, 4, 0]\nclass = adult", fillcolor="#399de5"] ;
582 -> 586 ;
587 [label="Wholeweight <= 0.588\nentropy = 0.414\nsamples = 12\nvalue = [11, 0, 1, 0]\nclass = baby", fillcolor="#e78c4b"] ;
579 -> 587 ;
588 [label="Sex_M <= 0.5\nentropy = 0.811\nsamples = 4\nvalue = [3, 0, 1, 0]\nclass = baby", fillcolor="#eeab7b"] ;
587 -> 588 ;
589 [label="entropy = 0.0\nsamples = 2\nvalue = [2, 0, 0, 0]\nclass = baby", fillcolor="#e58139"] ;
588 -> 589 ;
590 [label="Visceraweight <= 0.139\nentropy = 1.0\nsamples = 2\nvalue = [1, 0, 1, 0]\nclass = baby", fillcolor="#ffffff"] ;
588 -> 590 ;
591 [label="entropy = 0.0\nsamples = 1\nvalue = [1, 0, 0, 0]\nclass = baby", fillcolor="#e58139"] ;
590 -> 591 ;
592 [label="entropy = 0.0\nsamples = 1\nvalue = [0, 0, 1, 0]\nclass = adult", fillcolor="#399de5"] ;
590 -> 592 ;
593 [label="entropy = 0.0\nsamples = 8\nvalue = [8, 0, 0, 0]\nclass = baby", fillcolor="#e58139"] ;
587 -> 593 ;
594 [label="Shuckedweight <= 0.297\nentropy = 0.998\nsamples = 19\nvalue = [9, 0, 10, 0]\nclass = adult", fillcolor="#ebf5fc"] ;
578 -> 594 ;
595 [label="Sex_M <= 0.5\nentropy = 0.977\nsamples = 17\nvalue = [7, 0, 10, 0]\nclass = adult", fillcolor="#c4e2f7"] ;
594 -> 595 ;
596 [label="entropy = 0.0\nsamples = 5\nvalue = [0, 0, 5, 0]\nclass = adult", fillcolor="#399de5"] ;
595 -> 596 ;
597 [label="Length <= 0.502\nentropy = 0.98\nsamples = 12\nvalue = [7, 0, 5, 0]\nclass = baby", fillcolor="#f8dbc6"] ;
595 -> 597 ;
598 [label="Height <= 0.133\nentropy = 0.918\nsamples = 6\nvalue = [2, 0, 4, 0]\nclass = adult", fillcolor="#9ccef2"] ;
597 -> 598 ;
599 [label="entropy = 0.0\nsamples = 2\nvalue = [2, 0, 0, 0]\nclass = baby", fillcolor="#e58139"] ;
598 -> 599 ;
600 [label="entropy = 0.0\nsamples = 4\nvalue = [0, 0, 4, 0]\nclass = adult", fillcolor="#399de5"] ;
598 -> 600 ;
601 [label="Length <= 0.522\nentropy = 0.65\nsamples = 6\nvalue = [5, 0, 1, 0]\nclass = baby", fillcolor="#ea9a61"] ;
597 -> 601 ;
602 [label="entropy = 0.0\nsamples = 5\nvalue = [5, 0, 0, 0]\nclass = baby", fillcolor="#e58139"] ;
601 -> 602 ;
603 [label="entropy = 0.0\nsamples = 1\nvalue = [0, 0, 1, 0]\nclass = adult", fillcolor="#399de5"] ;
601 -> 603 ;
604 [label="entropy = 0.0\nsamples = 2\nvalue = [2, 0, 0, 0]\nclass = baby", fillcolor="#e58139"] ;
594 -> 604 ;
605 [label="entropy = 0.0\nsamples = 3\nvalue = [3, 0, 0, 0]\nclass = baby", fillcolor="#e58139"] ;
577 -> 605 ;
606 [label="entropy = 0.0\nsamples = 3\nvalue = [0, 0, 3, 0]\nclass = adult", fillcolor="#399de5"] ;
570 -> 606 ;
607 [label="Shellweight <= 0.183\nentropy = 0.353\nsamples = 15\nvalue = [14, 1, 0, 0]\nclass = baby", fillcolor="#e78a47"] ;
515 -> 607 ;
608 [label="entropy = 0.0\nsamples = 9\nvalue = [9, 0, 0, 0]\nclass = baby", fillcolor="#e58139"] ;
607 -> 608 ;
609 [label="Visceraweight <= 0.178\nentropy = 0.65\nsamples = 6\nvalue = [5, 1, 0, 0]\nclass = baby", fillcolor="#ea9a61"] ;
607 -> 609 ;
610 [label="entropy = 0.0\nsamples = 5\nvalue = [5, 0, 0, 0]\nclass = baby", fillcolor="#e58139"] ;
609 -> 610 ;
611 [label="entropy = 0.0\nsamples = 1\nvalue = [0, 1, 0, 0]\nclass = adolescent", fillcolor="#47e539"] ;
609 -> 611 ;
612 [label="Shuckedweight <= 0.217\nentropy = 1.09\nsamples = 141\nvalue = [65, 2, 74, 0]\nclass = adult", fillcolor="#e8f3fc"] ;
514 -> 612 ;
613 [label="Shellweight <= 0.135\nentropy = 1.177\nsamples = 55\nvalue = [30, 2, 23, 0]\nclass = baby", fillcolor="#f9e3d4"] ;
612 -> 613 ;
614 [label="Shellweight <= 0.118\nentropy = 1.135\nsamples = 18\nvalue = [5, 1, 12, 0]\nclass = adult", fillcolor="#94caf1"] ;
613 -> 614 ;
615 [label="Shuckedweight <= 0.17\nentropy = 0.918\nsamples = 6\nvalue = [4, 0, 2, 0]\nclass = baby", fillcolor="#f2c09c"] ;
614 -> 615 ;
616 [label="entropy = 0.0\nsamples = 2\nvalue = [2, 0, 0, 0]\nclass = baby", fillcolor="#e58139"] ;
615 -> 616 ;
617 [label="Shuckedweight <= 0.194\nentropy = 1.0\nsamples = 4\nvalue = [2, 0, 2, 0]\nclass = baby", fillcolor="#ffffff"] ;
615 -> 617 ;
618 [label="entropy = 0.0\nsamples = 2\nvalue = [0, 0, 2, 0]\nclass = adult", fillcolor="#399de5"] ;
617 -> 618 ;
619 [label="entropy = 0.0\nsamples = 2\nvalue = [2, 0, 0, 0]\nclass = baby", fillcolor="#e58139"] ;
617 -> 619 ;
620 [label="Visceraweight <= 0.083\nentropy = 0.817\nsamples = 12\nvalue = [1, 1, 10, 0]\nclass = adult", fillcolor="#5dafea"] ;
614 -> 620 ;
621 [label="Length <= 0.445\nentropy = 1.0\nsamples = 2\nvalue = [1, 0, 1, 0]\nclass = baby", fillcolor="#ffffff"] ;
620 -> 621 ;
622 [label="entropy = 0.0\nsamples = 1\nvalue = [1, 0, 0, 0]\nclass = baby", fillcolor="#e58139"] ;
621 -> 622 ;
623 [label="entropy = 0.0\nsamples = 1\nvalue = [0, 0, 1, 0]\nclass = adult", fillcolor="#399de5"] ;
621 -> 623 ;
624 [label="Visceraweight <= 0.105\nentropy = 0.469\nsamples = 10\nvalue = [0, 1, 9, 0]\nclass = adult", fillcolor="#4fa8e8"] ;
620 -> 624 ;
625 [label="entropy = 0.0\nsamples = 8\nvalue = [0, 0, 8, 0]\nclass = adult", fillcolor="#399de5"] ;
624 -> 625 ;
626 [label="Length <= 0.462\nentropy = 1.0\nsamples = 2\nvalue = [0, 1, 1, 0]\nclass = adolescent", fillcolor="#ffffff"] ;
624 -> 626 ;
627 [label="entropy = 0.0\nsamples = 1\nvalue = [0, 1, 0, 0]\nclass = adolescent", fillcolor="#47e539"] ;
626 -> 627 ;
628 [label="entropy = 0.0\nsamples = 1\nvalue = [0, 0, 1, 0]\nclass = adult", fillcolor="#399de5"] ;
626 -> 628 ;
629 [label="Length <= 0.468\nentropy = 1.043\nsamples = 37\nvalue = [25, 1, 11, 0]\nclass = baby", fillcolor="#f1bb94"] ;
613 -> 629 ;
630 [label="Shuckedweight <= 0.19\nentropy = 0.414\nsamples = 12\nvalue = [11, 0, 1, 0]\nclass = baby", fillcolor="#e78c4b"] ;
629 -> 630 ;
631 [label="entropy = 0.0\nsamples = 7\nvalue = [7, 0, 0, 0]\nclass = baby", fillcolor="#e58139"] ;
630 -> 631 ;
632 [label="Shuckedweight <= 0.196\nentropy = 0.722\nsamples = 5\nvalue = [4, 0, 1, 0]\nclass = baby", fillcolor="#eca06a"] ;
630 -> 632 ;
633 [label="Height <= 0.127\nentropy = 1.0\nsamples = 2\nvalue = [1, 0, 1, 0]\nclass = baby", fillcolor="#ffffff"] ;
632 -> 633 ;
634 [label="entropy = 0.0\nsamples = 1\nvalue = [1, 0, 0, 0]\nclass = baby", fillcolor="#e58139"] ;
633 -> 634 ;
635 [label="entropy = 0.0\nsamples = 1\nvalue = [0, 0, 1, 0]\nclass = adult", fillcolor="#399de5"] ;
633 -> 635 ;
636 [label="entropy = 0.0\nsamples = 3\nvalue = [3, 0, 0, 0]\nclass = baby", fillcolor="#e58139"] ;
632 -> 636 ;
637 [label="Shellweight <= 0.171\nentropy = 1.183\nsamples = 25\nvalue = [14, 1, 10, 0]\nclass = baby", fillcolor="#f8ddca"] ;
629 -> 637 ;
638 [label="Shellweight <= 0.148\nentropy = 1.253\nsamples = 17\nvalue = [7, 1, 9, 0]\nclass = adult", fillcolor="#d7ebfa"] ;
637 -> 638 ;
639 [label="Visceraweight <= 0.109\nentropy = 0.811\nsamples = 8\nvalue = [6, 0, 2, 0]\nclass = baby", fillcolor="#eeab7b"] ;
638 -> 639 ;
640 [label="Shellweight <= 0.139\nentropy = 1.0\nsamples = 4\nvalue = [2, 0, 2, 0]\nclass = baby", fillcolor="#ffffff"] ;
639 -> 640 ;
641 [label="entropy = 0.0\nsamples = 1\nvalue = [1, 0, 0, 0]\nclass = baby", fillcolor="#e58139"] ;
640 -> 641 ;
642 [label="Shuckedweight <= 0.198\nentropy = 0.918\nsamples = 3\nvalue = [1, 0, 2, 0]\nclass = adult", fillcolor="#9ccef2"] ;
640 -> 642 ;
643 [label="entropy = 0.0\nsamples = 1\nvalue = [1, 0, 0, 0]\nclass = baby", fillcolor="#e58139"] ;
642 -> 643 ;
644 [label="entropy = 0.0\nsamples = 2\nvalue = [0, 0, 2, 0]\nclass = adult", fillcolor="#399de5"] ;
642 -> 644 ;
645 [label="entropy = 0.0\nsamples = 4\nvalue = [4, 0, 0, 0]\nclass = baby", fillcolor="#e58139"] ;
639 -> 645 ;
646 [label="Visceraweight <= 0.081\nentropy = 0.986\nsamples = 9\nvalue = [1, 1, 7, 0]\nclass = adult", fillcolor="#6ab6ec"] ;
638 -> 646 ;
647 [label="entropy = 0.0\nsamples = 1\nvalue = [0, 1, 0, 0]\nclass = adolescent", fillcolor="#47e539"] ;
646 -> 647 ;
648 [label="Diameter <= 0.363\nentropy = 0.544\nsamples = 8\nvalue = [1, 0, 7, 0]\nclass = adult", fillcolor="#55abe9"] ;
646 -> 648 ;
649 [label="Shuckedweight <= 0.204\nentropy = 1.0\nsamples = 2\nvalue = [1, 0, 1, 0]\nclass = baby", fillcolor="#ffffff"] ;
648 -> 649 ;
650 [label="entropy = 0.0\nsamples = 1\nvalue = [1, 0, 0, 0]\nclass = baby", fillcolor="#e58139"] ;
649 -> 650 ;
651 [label="entropy = 0.0\nsamples = 1\nvalue = [0, 0, 1, 0]\nclass = adult", fillcolor="#399de5"] ;
649 -> 651 ;
652 [label="entropy = 0.0\nsamples = 6\nvalue = [0, 0, 6, 0]\nclass = adult", fillcolor="#399de5"] ;
648 -> 652 ;
653 [label="Shellweight <= 0.188\nentropy = 0.544\nsamples = 8\nvalue = [7, 0, 1, 0]\nclass = baby", fillcolor="#e99355"] ;
637 -> 653 ;
654 [label="entropy = 0.0\nsamples = 7\nvalue = [7, 0, 0, 0]\nclass = baby", fillcolor="#e58139"] ;
653 -> 654 ;
655 [label="entropy = 0.0\nsamples = 1\nvalue = [0, 0, 1, 0]\nclass = adult", fillcolor="#399de5"] ;
653 -> 655 ;
656 [label="Visceraweight <= 0.146\nentropy = 0.975\nsamples = 86\nvalue = [35, 0, 51, 0]\nclass = adult", fillcolor="#c1e0f7"] ;
612 -> 656 ;
657 [label="Wholeweight <= 0.574\nentropy = 0.939\nsamples = 73\nvalue = [26, 0, 47, 0]\nclass = adult", fillcolor="#a7d3f3"] ;
656 -> 657 ;
658 [label="Wholeweight <= 0.56\nentropy = 0.801\nsamples = 41\nvalue = [10, 0, 31, 0]\nclass = adult", fillcolor="#79bded"] ;
657 -> 658 ;
659 [label="Shellweight <= 0.161\nentropy = 0.885\nsamples = 33\nvalue = [10, 0, 23, 0]\nclass = adult", fillcolor="#8fc8f0"] ;
658 -> 659 ;
660 [label="Wholeweight <= 0.469\nentropy = 0.592\nsamples = 21\nvalue = [3, 0, 18, 0]\nclass = adult", fillcolor="#5aade9"] ;
659 -> 660 ;
661 [label="entropy = 0.0\nsamples = 1\nvalue = [1, 0, 0, 0]\nclass = baby", fillcolor="#e58139"] ;
660 -> 661 ;
662 [label="Shellweight <= 0.149\nentropy = 0.469\nsamples = 20\nvalue = [2, 0, 18, 0]\nclass = adult", fillcolor="#4fa8e8"] ;
660 -> 662 ;
663 [label="entropy = 0.0\nsamples = 11\nvalue = [0, 0, 11, 0]\nclass = adult", fillcolor="#399de5"] ;
662 -> 663 ;
664 [label="Shellweight <= 0.153\nentropy = 0.764\nsamples = 9\nvalue = [2, 0, 7, 0]\nclass = adult", fillcolor="#72b9ec"] ;
662 -> 664 ;
665 [label="entropy = 0.0\nsamples = 2\nvalue = [2, 0, 0, 0]\nclass = baby", fillcolor="#e58139"] ;
664 -> 665 ;
666 [label="entropy = 0.0\nsamples = 7\nvalue = [0, 0, 7, 0]\nclass = adult", fillcolor="#399de5"] ;
664 -> 666 ;
667 [label="Length <= 0.472\nentropy = 0.98\nsamples = 12\nvalue = [7, 0, 5, 0]\nclass = baby", fillcolor="#f8dbc6"] ;
659 -> 667 ;
668 [label="entropy = 0.0\nsamples = 2\nvalue = [0, 0, 2, 0]\nclass = adult", fillcolor="#399de5"] ;
667 -> 668 ;
669 [label="Length <= 0.51\nentropy = 0.881\nsamples = 10\nvalue = [7, 0, 3, 0]\nclass = baby", fillcolor="#f0b78e"] ;
667 -> 669 ;
670 [label="entropy = 0.0\nsamples = 6\nvalue = [6, 0, 0, 0]\nclass = baby", fillcolor="#e58139"] ;
669 -> 670 ;
671 [label="Length <= 0.537\nentropy = 0.811\nsamples = 4\nvalue = [1, 0, 3, 0]\nclass = adult", fillcolor="#7bbeee"] ;
669 -> 671 ;
672 [label="entropy = 0.0\nsamples = 3\nvalue = [0, 0, 3, 0]\nclass = adult", fillcolor="#399de5"] ;
671 -> 672 ;
673 [label="entropy = 0.0\nsamples = 1\nvalue = [1, 0, 0, 0]\nclass = baby", fillcolor="#e58139"] ;
671 -> 673 ;
674 [label="entropy = 0.0\nsamples = 8\nvalue = [0, 0, 8, 0]\nclass = adult", fillcolor="#399de5"] ;
658 -> 674 ;
675 [label="Wholeweight <= 0.583\nentropy = 1.0\nsamples = 32\nvalue = [16, 0, 16, 0]\nclass = baby", fillcolor="#ffffff"] ;
657 -> 675 ;
676 [label="Shuckedweight <= 0.251\nentropy = 0.592\nsamples = 7\nvalue = [6, 0, 1, 0]\nclass = baby", fillcolor="#e9965a"] ;
675 -> 676 ;
677 [label="entropy = 0.0\nsamples = 6\nvalue = [6, 0, 0, 0]\nclass = baby", fillcolor="#e58139"] ;
676 -> 677 ;
678 [label="entropy = 0.0\nsamples = 1\nvalue = [0, 0, 1, 0]\nclass = adult", fillcolor="#399de5"] ;
676 -> 678 ;
679 [label="Diameter <= 0.377\nentropy = 0.971\nsamples = 25\nvalue = [10, 0, 15, 0]\nclass = adult", fillcolor="#bddef6"] ;
675 -> 679 ;
680 [label="entropy = 0.0\nsamples = 3\nvalue = [0, 0, 3, 0]\nclass = adult", fillcolor="#399de5"] ;
679 -> 680 ;
681 [label="Visceraweight <= 0.142\nentropy = 0.994\nsamples = 22\nvalue = [10, 0, 12, 0]\nclass = adult", fillcolor="#deeffb"] ;
679 -> 681 ;
682 [label="Wholeweight <= 0.589\nentropy = 0.998\nsamples = 19\nvalue = [10, 0, 9, 0]\nclass = baby", fillcolor="#fcf2eb"] ;
681 -> 682 ;
683 [label="entropy = 0.0\nsamples = 3\nvalue = [0, 0, 3, 0]\nclass = adult", fillcolor="#399de5"] ;
682 -> 683 ;
684 [label="Shuckedweight <= 0.267\nentropy = 0.954\nsamples = 16\nvalue = [10, 0, 6, 0]\nclass = baby", fillcolor="#f5cdb0"] ;
682 -> 684 ;
685 [label="entropy = 0.0\nsamples = 3\nvalue = [3, 0, 0, 0]\nclass = baby", fillcolor="#e58139"] ;
684 -> 685 ;
686 [label="Shellweight <= 0.155\nentropy = 0.996\nsamples = 13\nvalue = [7, 0, 6, 0]\nclass = baby", fillcolor="#fbede3"] ;
684 -> 686 ;
687 [label="entropy = 0.0\nsamples = 2\nvalue = [2, 0, 0, 0]\nclass = baby", fillcolor="#e58139"] ;
686 -> 687 ;
688 [label="Visceraweight <= 0.128\nentropy = 0.994\nsamples = 11\nvalue = [5, 0, 6, 0]\nclass = adult", fillcolor="#deeffb"] ;
686 -> 688 ;
689 [label="Visceraweight <= 0.107\nentropy = 0.65\nsamples = 6\nvalue = [1, 0, 5, 0]\nclass = adult", fillcolor="#61b1ea"] ;
688 -> 689 ;
690 [label="entropy = 0.0\nsamples = 1\nvalue = [1, 0, 0, 0]\nclass = baby", fillcolor="#e58139"] ;
689 -> 690 ;
691 [label="entropy = 0.0\nsamples = 5\nvalue = [0, 0, 5, 0]\nclass = adult", fillcolor="#399de5"] ;
689 -> 691 ;
692 [label="Visceraweight <= 0.14\nentropy = 0.722\nsamples = 5\nvalue = [4, 0, 1, 0]\nclass = baby", fillcolor="#eca06a"] ;
688 -> 692 ;
693 [label="entropy = 0.0\nsamples = 4\nvalue = [4, 0, 0, 0]\nclass = baby", fillcolor="#e58139"] ;
692 -> 693 ;
694 [label="entropy = 0.0\nsamples = 1\nvalue = [0, 0, 1, 0]\nclass = adult", fillcolor="#399de5"] ;
692 -> 694 ;
695 [label="entropy = 0.0\nsamples = 3\nvalue = [0, 0, 3, 0]\nclass = adult", fillcolor="#399de5"] ;
681 -> 695 ;
696 [label="Shellweight <= 0.172\nentropy = 0.89\nsamples = 13\nvalue = [9, 0, 4, 0]\nclass = baby", fillcolor="#f1b991"] ;
656 -> 696 ;
697 [label="Visceraweight <= 0.172\nentropy = 0.592\nsamples = 7\nvalue = [6, 0, 1, 0]\nclass = baby", fillcolor="#e9965a"] ;
696 -> 697 ;
698 [label="entropy = 0.0\nsamples = 6\nvalue = [6, 0, 0, 0]\nclass = baby", fillcolor="#e58139"] ;
697 -> 698 ;
699 [label="entropy = 0.0\nsamples = 1\nvalue = [0, 0, 1, 0]\nclass = adult", fillcolor="#399de5"] ;
697 -> 699 ;
700 [label="Wholeweight <= 0.613\nentropy = 1.0\nsamples = 6\nvalue = [3, 0, 3, 0]\nclass = baby", fillcolor="#ffffff"] ;
696 -> 700 ;
701 [label="entropy = 0.0\nsamples = 2\nvalue = [2, 0, 0, 0]\nclass = baby", fillcolor="#e58139"] ;
700 -> 701 ;
702 [label="Diameter <= 0.392\nentropy = 0.811\nsamples = 4\nvalue = [1, 0, 3, 0]\nclass = adult", fillcolor="#7bbeee"] ;
700 -> 702 ;
703 [label="entropy = 0.0\nsamples = 2\nvalue = [0, 0, 2, 0]\nclass = adult", fillcolor="#399de5"] ;
702 -> 703 ;
704 [label="Shellweight <= 0.183\nentropy = 1.0\nsamples = 2\nvalue = [1, 0, 1, 0]\nclass = baby", fillcolor="#ffffff"] ;
702 -> 704 ;
705 [label="entropy = 0.0\nsamples = 1\nvalue = [0, 0, 1, 0]\nclass = adult", fillcolor="#399de5"] ;
704 -> 705 ;
706 [label="entropy = 0.0\nsamples = 1\nvalue = [1, 0, 0, 0]\nclass = baby", fillcolor="#e58139"] ;
704 -> 706 ;
707 [label="Shellweight <= 0.234\nentropy = 0.953\nsamples = 179\nvalue = [144, 20, 13, 2]\nclass = baby", fillcolor="#eb9d65"] ;
513 -> 707 ;
708 [label="Shuckedweight <= 0.244\nentropy = 0.798\nsamples = 109\nvalue = [91, 6, 12, 0]\nclass = baby", fillcolor="#ea985e"] ;
707 -> 708 ;
709 [label="Visceraweight <= 0.134\nentropy = 1.008\nsamples = 43\nvalue = [33, 6, 4, 0]\nclass = baby", fillcolor="#eca36f"] ;
708 -> 709 ;
710 [label="Sex_M <= 0.5\nentropy = 1.359\nsamples = 25\nvalue = [15, 6, 4, 0]\nclass = baby", fillcolor="#f3c3a1"] ;
709 -> 710 ;
711 [label="Length <= 0.48\nentropy = 1.509\nsamples = 19\nvalue = [9, 6, 4, 0]\nclass = baby", fillcolor="#f9e2d1"] ;
710 -> 711 ;
712 [label="Shellweight <= 0.225\nentropy = 0.918\nsamples = 6\nvalue = [4, 2, 0, 0]\nclass = baby", fillcolor="#f2c09c"] ;
711 -> 712 ;
713 [label="Diameter <= 0.335\nentropy = 0.722\nsamples = 5\nvalue = [4, 1, 0, 0]\nclass = baby", fillcolor="#eca06a"] ;
712 -> 713 ;
714 [label="entropy = 0.0\nsamples = 1\nvalue = [0, 1, 0, 0]\nclass = adolescent", fillcolor="#47e539"] ;
713 -> 714 ;
715 [label="entropy = 0.0\nsamples = 4\nvalue = [4, 0, 0, 0]\nclass = baby", fillcolor="#e58139"] ;
713 -> 715 ;
716 [label="entropy = 0.0\nsamples = 1\nvalue = [0, 1, 0, 0]\nclass = adolescent", fillcolor="#47e539"] ;
712 -> 716 ;
717 [label="Visceraweight <= 0.131\nentropy = 1.577\nsamples = 13\nvalue = [5, 4, 4, 0]\nclass = baby", fillcolor="#fcf1e9"] ;
711 -> 717 ;
718 [label="Visceraweight <= 0.12\nentropy = 1.361\nsamples = 10\nvalue = [5, 1, 4, 0]\nclass = baby", fillcolor="#fbeade"] ;
717 -> 718 ;
719 [label="Diameter <= 0.368\nentropy = 0.722\nsamples = 5\nvalue = [4, 0, 1, 0]\nclass = baby", fillcolor="#eca06a"] ;
718 -> 719 ;
720 [label="entropy = 0.0\nsamples = 1\nvalue = [0, 0, 1, 0]\nclass = adult", fillcolor="#399de5"] ;
719 -> 720 ;
721 [label="entropy = 0.0\nsamples = 4\nvalue = [4, 0, 0, 0]\nclass = baby", fillcolor="#e58139"] ;
719 -> 721 ;
722 [label="Wholeweight <= 0.64\nentropy = 1.371\nsamples = 5\nvalue = [1, 1, 3, 0]\nclass = adult", fillcolor="#9ccef2"] ;
718 -> 722 ;
723 [label="Visceraweight <= 0.13\nentropy = 0.811\nsamples = 4\nvalue = [1, 0, 3, 0]\nclass = adult", fillcolor="#7bbeee"] ;
722 -> 723 ;
724 [label="entropy = 0.0\nsamples = 3\nvalue = [0, 0, 3, 0]\nclass = adult", fillcolor="#399de5"] ;
723 -> 724 ;
725 [label="entropy = 0.0\nsamples = 1\nvalue = [1, 0, 0, 0]\nclass = baby", fillcolor="#e58139"] ;
723 -> 725 ;
726 [label="entropy = 0.0\nsamples = 1\nvalue = [0, 1, 0, 0]\nclass = adolescent", fillcolor="#47e539"] ;
722 -> 726 ;
727 [label="entropy = 0.0\nsamples = 3\nvalue = [0, 3, 0, 0]\nclass = adolescent", fillcolor="#47e539"] ;
717 -> 727 ;
728 [label="entropy = 0.0\nsamples = 6\nvalue = [6, 0, 0, 0]\nclass = baby", fillcolor="#e58139"] ;
710 -> 728 ;
729 [label="entropy = 0.0\nsamples = 18\nvalue = [18, 0, 0, 0]\nclass = baby", fillcolor="#e58139"] ;
709 -> 729 ;
730 [label="Diameter <= 0.422\nentropy = 0.533\nsamples = 66\nvalue = [58, 0, 8, 0]\nclass = baby", fillcolor="#e99254"] ;
708 -> 730 ;
731 [label="Wholeweight <= 0.657\nentropy = 0.242\nsamples = 50\nvalue = [48, 0, 2, 0]\nclass = baby", fillcolor="#e68641"] ;
730 -> 731 ;
732 [label="entropy = 0.0\nsamples = 24\nvalue = [24, 0, 0, 0]\nclass = baby", fillcolor="#e58139"] ;
731 -> 732 ;
733 [label="Wholeweight <= 0.662\nentropy = 0.391\nsamples = 26\nvalue = [24, 0, 2, 0]\nclass = baby", fillcolor="#e78c49"] ;
731 -> 733 ;
734 [label="Shellweight <= 0.197\nentropy = 1.0\nsamples = 4\nvalue = [2, 0, 2, 0]\nclass = baby", fillcolor="#ffffff"] ;
733 -> 734 ;
735 [label="entropy = 0.0\nsamples = 1\nvalue = [1, 0, 0, 0]\nclass = baby", fillcolor="#e58139"] ;
734 -> 735 ;
736 [label="Wholeweight <= 0.659\nentropy = 0.918\nsamples = 3\nvalue = [1, 0, 2, 0]\nclass = adult", fillcolor="#9ccef2"] ;
734 -> 736 ;
737 [label="entropy = 0.0\nsamples = 1\nvalue = [0, 0, 1, 0]\nclass = adult", fillcolor="#399de5"] ;
736 -> 737 ;
738 [label="Visceraweight <= 0.141\nentropy = 1.0\nsamples = 2\nvalue = [1, 0, 1, 0]\nclass = baby", fillcolor="#ffffff"] ;
736 -> 738 ;
739 [label="entropy = 0.0\nsamples = 1\nvalue = [1, 0, 0, 0]\nclass = baby", fillcolor="#e58139"] ;
738 -> 739 ;
740 [label="entropy = 0.0\nsamples = 1\nvalue = [0, 0, 1, 0]\nclass = adult", fillcolor="#399de5"] ;
738 -> 740 ;
741 [label="entropy = 0.0\nsamples = 22\nvalue = [22, 0, 0, 0]\nclass = baby", fillcolor="#e58139"] ;
733 -> 741 ;
742 [label="Length <= 0.57\nentropy = 0.954\nsamples = 16\nvalue = [10, 0, 6, 0]\nclass = baby", fillcolor="#f5cdb0"] ;
730 -> 742 ;
743 [label="Shuckedweight <= 0.26\nentropy = 0.918\nsamples = 15\nvalue = [10, 0, 5, 0]\nclass = baby", fillcolor="#f2c09c"] ;
742 -> 743 ;
744 [label="entropy = 0.0\nsamples = 4\nvalue = [4, 0, 0, 0]\nclass = baby", fillcolor="#e58139"] ;
743 -> 744 ;
745 [label="Shellweight <= 0.216\nentropy = 0.994\nsamples = 11\nvalue = [6, 0, 5, 0]\nclass = baby", fillcolor="#fbeade"] ;
743 -> 745 ;
746 [label="Length <= 0.56\nentropy = 0.811\nsamples = 4\nvalue = [1, 0, 3, 0]\nclass = adult", fillcolor="#7bbeee"] ;
745 -> 746 ;
747 [label="entropy = 0.0\nsamples = 3\nvalue = [0, 0, 3, 0]\nclass = adult", fillcolor="#399de5"] ;
746 -> 747 ;
748 [label="entropy = 0.0\nsamples = 1\nvalue = [1, 0, 0, 0]\nclass = baby", fillcolor="#e58139"] ;
746 -> 748 ;
749 [label="Wholeweight <= 0.681\nentropy = 0.863\nsamples = 7\nvalue = [5, 0, 2, 0]\nclass = baby", fillcolor="#efb388"] ;
745 -> 749 ;
750 [label="Shuckedweight <= 0.266\nentropy = 0.918\nsamples = 3\nvalue = [1, 0, 2, 0]\nclass = adult", fillcolor="#9ccef2"] ;
749 -> 750 ;
751 [label="entropy = 0.0\nsamples = 1\nvalue = [0, 0, 1, 0]\nclass = adult", fillcolor="#399de5"] ;
750 -> 751 ;
752 [label="Height <= 0.145\nentropy = 1.0\nsamples = 2\nvalue = [1, 0, 1, 0]\nclass = baby", fillcolor="#ffffff"] ;
750 -> 752 ;
753 [label="entropy = 0.0\nsamples = 1\nvalue = [0, 0, 1, 0]\nclass = adult", fillcolor="#399de5"] ;
752 -> 753 ;
754 [label="entropy = 0.0\nsamples = 1\nvalue = [1, 0, 0, 0]\nclass = baby", fillcolor="#e58139"] ;
752 -> 754 ;
755 [label="entropy = 0.0\nsamples = 4\nvalue = [4, 0, 0, 0]\nclass = baby", fillcolor="#e58139"] ;
749 -> 755 ;
756 [label="entropy = 0.0\nsamples = 1\nvalue = [0, 0, 1, 0]\nclass = adult", fillcolor="#399de5"] ;
742 -> 756 ;
757 [label="Shellweight <= 0.325\nentropy = 1.002\nsamples = 70\nvalue = [53, 14, 1, 2]\nclass = baby", fillcolor="#eda775"] ;
707 -> 757 ;
758 [label="Sex_I <= 0.5\nentropy = 0.937\nsamples = 67\nvalue = [53, 11, 1, 2]\nclass = baby", fillcolor="#eca06b"] ;
757 -> 758 ;
759 [label="Wholeweight <= 0.804\nentropy = 0.919\nsamples = 53\nvalue = [41, 10, 0, 2]\nclass = baby", fillcolor="#eca470"] ;
758 -> 759 ;
760 [label="Shellweight <= 0.261\nentropy = 0.774\nsamples = 38\nvalue = [32, 4, 0, 2]\nclass = baby", fillcolor="#ea975c"] ;
759 -> 760 ;
761 [label="Wholeweight <= 0.772\nentropy = 0.926\nsamples = 29\nvalue = [23, 4, 0, 2]\nclass = baby", fillcolor="#eb9f69"] ;
760 -> 761 ;
762 [label="Visceraweight <= 0.15\nentropy = 0.634\nsamples = 25\nvalue = [21, 4, 0, 0]\nclass = baby", fillcolor="#ea995f"] ;
761 -> 762 ;
763 [label="Height <= 0.127\nentropy = 0.89\nsamples = 13\nvalue = [9, 4, 0, 0]\nclass = baby", fillcolor="#f1b991"] ;
762 -> 763 ;
764 [label="entropy = 0.0\nsamples = 1\nvalue = [0, 1, 0, 0]\nclass = adolescent", fillcolor="#47e539"] ;
763 -> 764 ;
765 [label="Length <= 0.54\nentropy = 0.811\nsamples = 12\nvalue = [9, 3, 0, 0]\nclass = baby", fillcolor="#eeab7b"] ;
763 -> 765 ;
766 [label="Shellweight <= 0.247\nentropy = 0.684\nsamples = 11\nvalue = [9, 2, 0, 0]\nclass = baby", fillcolor="#eb9d65"] ;
765 -> 766 ;
767 [label="entropy = 0.0\nsamples = 4\nvalue = [4, 0, 0, 0]\nclass = baby", fillcolor="#e58139"] ;
766 -> 767 ;
768 [label="Shellweight <= 0.251\nentropy = 0.863\nsamples = 7\nvalue = [5, 2, 0, 0]\nclass = baby", fillcolor="#efb388"] ;
766 -> 768 ;
769 [label="Wholeweight <= 0.703\nentropy = 0.918\nsamples = 3\nvalue = [1, 2, 0, 0]\nclass = adolescent", fillcolor="#a3f29c"] ;
768 -> 769 ;
770 [label="entropy = 0.0\nsamples = 2\nvalue = [0, 2, 0, 0]\nclass = adolescent", fillcolor="#47e539"] ;
769 -> 770 ;
771 [label="entropy = 0.0\nsamples = 1\nvalue = [1, 0, 0, 0]\nclass = baby", fillcolor="#e58139"] ;
769 -> 771 ;
772 [label="entropy = 0.0\nsamples = 4\nvalue = [4, 0, 0, 0]\nclass = baby", fillcolor="#e58139"] ;
768 -> 772 ;
773 [label="entropy = 0.0\nsamples = 1\nvalue = [0, 1, 0, 0]\nclass = adolescent", fillcolor="#47e539"] ;
765 -> 773 ;
774 [label="entropy = 0.0\nsamples = 12\nvalue = [12, 0, 0, 0]\nclass = baby", fillcolor="#e58139"] ;
762 -> 774 ;
775 [label="Shuckedweight <= 0.221\nentropy = 1.0\nsamples = 4\nvalue = [2, 0, 0, 2]\nclass = baby", fillcolor="#ffffff"] ;
761 -> 775 ;
776 [label="entropy = 0.0\nsamples = 1\nvalue = [1, 0, 0, 0]\nclass = baby", fillcolor="#e58139"] ;
775 -> 776 ;
777 [label="Length <= 0.52\nentropy = 0.918\nsamples = 3\nvalue = [1, 0, 0, 2]\nclass = geriatric", fillcolor="#eb9cf2"] ;
775 -> 777 ;
778 [label="entropy = 0.0\nsamples = 1\nvalue = [0, 0, 0, 1]\nclass = geriatric", fillcolor="#d739e5"] ;
777 -> 778 ;
779 [label="Shellweight <= 0.257\nentropy = 1.0\nsamples = 2\nvalue = [1, 0, 0, 1]\nclass = baby", fillcolor="#ffffff"] ;
777 -> 779 ;
780 [label="entropy = 0.0\nsamples = 1\nvalue = [1, 0, 0, 0]\nclass = baby", fillcolor="#e58139"] ;
779 -> 780 ;
781 [label="entropy = 0.0\nsamples = 1\nvalue = [0, 0, 0, 1]\nclass = geriatric", fillcolor="#d739e5"] ;
779 -> 781 ;
782 [label="entropy = 0.0\nsamples = 9\nvalue = [9, 0, 0, 0]\nclass = baby", fillcolor="#e58139"] ;
760 -> 782 ;
783 [label="Diameter <= 0.403\nentropy = 0.971\nsamples = 15\nvalue = [9, 6, 0, 0]\nclass = baby", fillcolor="#f6d5bd"] ;
759 -> 783 ;
784 [label="entropy = 0.0\nsamples = 2\nvalue = [2, 0, 0, 0]\nclass = baby", fillcolor="#e58139"] ;
783 -> 784 ;
785 [label="Shellweight <= 0.237\nentropy = 0.996\nsamples = 13\nvalue = [7, 6, 0, 0]\nclass = baby", fillcolor="#fbede3"] ;
783 -> 785 ;
786 [label="entropy = 0.0\nsamples = 1\nvalue = [0, 1, 0, 0]\nclass = adolescent", fillcolor="#47e539"] ;
785 -> 786 ;
787 [label="Height <= 0.148\nentropy = 0.98\nsamples = 12\nvalue = [7, 5, 0, 0]\nclass = baby", fillcolor="#f8dbc6"] ;
785 -> 787 ;
788 [label="Sex_M <= 0.5\nentropy = 0.946\nsamples = 11\nvalue = [7, 4, 0, 0]\nclass = baby", fillcolor="#f4c9aa"] ;
787 -> 788 ;
789 [label="entropy = 0.0\nsamples = 3\nvalue = [0, 3, 0, 0]\nclass = adolescent", fillcolor="#47e539"] ;
788 -> 789 ;
790 [label="Length <= 0.532\nentropy = 0.544\nsamples = 8\nvalue = [7, 1, 0, 0]\nclass = baby", fillcolor="#e99355"] ;
788 -> 790 ;
791 [label="Wholeweight <= 0.859\nentropy = 0.811\nsamples = 4\nvalue = [3, 1, 0, 0]\nclass = baby", fillcolor="#eeab7b"] ;
790 -> 791 ;
792 [label="entropy = 0.0\nsamples = 1\nvalue = [0, 1, 0, 0]\nclass = adolescent", fillcolor="#47e539"] ;
791 -> 792 ;
793 [label="entropy = 0.0\nsamples = 3\nvalue = [3, 0, 0, 0]\nclass = baby", fillcolor="#e58139"] ;
791 -> 793 ;
794 [label="entropy = 0.0\nsamples = 4\nvalue = [4, 0, 0, 0]\nclass = baby", fillcolor="#e58139"] ;
790 -> 794 ;
795 [label="entropy = 0.0\nsamples = 1\nvalue = [0, 1, 0, 0]\nclass = adolescent", fillcolor="#47e539"] ;
787 -> 795 ;
